{"learner":{"attributes":{"best_iteration":"99","best_ntree_limit":"100","scikit_learn":"{\"n_estimators\": 100, \"objective\": \"reg:squarederror\", \"max_depth\": 7, \"max_leaves\": null, \"max_bin\": null, \"grow_policy\": null, \"learning_rate\": 0.14202082345099512, \"verbosity\": null, \"booster\": null, \"tree_method\": null, \"gamma\": null, \"min_child_weight\": 4, \"max_delta_step\": null, \"subsample\": null, \"sampling_method\": null, \"colsample_bytree\": null, \"colsample_bylevel\": null, \"colsample_bynode\": null, \"reg_alpha\": 0.000401061107976021, \"reg_lambda\": 2.1757267724285106e-05, \"scale_pos_weight\": null, \"base_score\": null, \"missing\": NaN, \"num_parallel_tree\": null, \"random_state\": null, \"n_jobs\": -1, \"monotone_constraints\": null, \"interaction_constraints\": null, \"importance_type\": null, \"gpu_id\": null, \"validate_parameters\": null, \"predictor\": null, \"enable_categorical\": false, \"feature_types\": null, \"max_cat_to_onehot\": null, \"max_cat_threshold\": null, \"eval_metric\": null, \"early_stopping_rounds\": null, \"callbacks\": null, \"_estimator_type\": \"regressor\"}"},"feature_names":[],"feature_types":[],"gradient_booster":{"model":{"gbtree_model_param":{"num_parallel_tree":"1","num_trees":"100","size_leaf_vector":"0"},"tree_info":[0,0,0,0,0,0,0,0,0,0,0,0,0,0,0,0,0,0,0,0,0,0,0,0,0,0,0,0,0,0,0,0,0,0,0,0,0,0,0,0,0,0,0,0,0,0,0,0,0,0,0,0,0,0,0,0,0,0,0,0,0,0,0,0,0,0,0,0,0,0,0,0,0,0,0,0,0,0,0,0,0,0,0,0,0,0,0,0,0,0,0,0,0,0,0,0,0,0,0,0],"trees":[{"base_weights":[5.6819606E0,7.456414E0,5.387954E0,8.390825E0,7.006916E0,5.18061E0,6.459718E0,7.771466E0,8.563667E0,7.278687E0,4.4539104E0,4.0091033E0,5.355681E0,5.992434E0,6.8338833E0,7.7422433E0,7.817373E0,8.541868E0,9.479168E0,7.077934E0,9.382871E0,4.0261707E0,6.3787093E0,3.2872994E0,4.8945146E0,5.6758E0,4.557884E0,6.473149E0,5.4984865E0,5.5647173E0,7.1715508E0,7.7304363E0,7.7628818E0,7.800712E0,7.8298445E0,8.463095E0,8.643555E0,9.633835E0,6.9043245E0,1.0268202E1,7.2801876E0,4.4010906E0,3.8683007E0,6.967435E0,5.7899237E0,4.1049023E0,2.7495952E0,5.388169E0,3.439529E0,6.384415E0,5.422508E0,4.822479E0,3.9799876E0,7.315643E0,6.3010244E0,4.8484464E0,5.7568336E0,7.2906904E0,5.3278155E0,7.22985E0,5.817693E0,7.7747016E0,7.727328E0,8.507543E0,8.359607E0,8.633274E0,8.915876E0,8.309867E0,1.069299E1,7.1529956E0,5.932663E0,1.0106296E1,1.0298546E1,7.8547144E0,7.088647E0,4.1916776E0,4.610462E0,3.9236226E0,3.7133675E0,5.714503E0,5.884068E0,4.207945E0,4.024475E0,5.5380554E0,2.6453521E0,6.1265607E0,5.130174E0,3.3286698E0,4.0307508E0,7.792556E0,6.2279544E0,6.2851977E0,5.3369646E0,5.396914E0,4.5860543E0,4.1714206E0,3.5080035E0,7.378116E0,6.982391E0,7.175855E0,6.0910625E0,6.0465875E0,4.5408087E0,5.7856197E0,4.6628866E0,7.5088005E0,6.7453237E0,5.822185E0,4.6761384E0,7.4194236E0,6.8980937E0,6.023793E0,5.096257E0,8.571708E0,8.419943E0,8.323213E0,8.38292E0,8.597259E0,8.697713E0,7.666164E0,8.953521E0,1.1229788E1,1.015615E1,6.7339096E0,7.537791E0,2.4548345E0,6.066423E0,9.870805E0,1.0294565E1,1.0317878E1,1.0279188E1,7.016341E0,7.160891E0,4.65685E0,4.5175614E0,3.9034889E0,4.044344E0,3.6743073E0,3.739354E0,3.8736572E0,4.2556944E0,4.164794E0,3.8771322E0,5.442713E0,5.633311E0,2.8696556E0,1.536288E0,5.7390194E0,6.6755624E0,5.6840324E0,4.934515E0,3.5789466E0,3.2929103E0,3.7982457E0,4.263201E0,7.3211856E0,8.263917E0,5.9732795E0,6.5943565E0,5.7659554E0,6.6988287E0,6.278796E0,5.285879E0,5.716511E0,5.1483364E0,4.9134336E0,4.2730875E0,4.266296E0,3.1356888E0,4.0032115E0,3.1148953E0,7.437367E0,7.2003164E0,6.866359E0,7.794816E0,5.8812966E0,6.5964007E0,5.8741155E0,6.4201875E0,3.375757E0,4.8370004E0,5.4479218E0,5.868657E0,7.690227E0,7.349982E0,5.525686E0,6.600473E0,4.839123E0,4.121959E0,7.3055377E0,7.7510266E0,6.4582534E0,7.126807E0,5.9154882E0,6.2944665E0],"categories":[],"categories_nodes":[],"categories_segments":[],"categories_sizes":[],"default_left":[1,1,1,1,1,1,1,1,1,1,1,1,1,1,1,1,1,1,0,1,1,1,1,1,1,1,1,1,1,1,1,0,1,0,0,1,1,1,1,1,1,1,1,0,1,1,1,1,1,1,1,1,1,1,1,1,1,1,1,1,1,0,0,1,1,1,0,1,1,1,1,1,1,0,1,0,1,1,1,0,0,1,1,1,1,1,1,1,1,1,1,1,1,1,1,1,1,1,0,1,1,1,1,1,0,1,0,1,1,1,1,1,0,0,0,0,0,0,0,0,0,0,0,0,0,0,0,0,0,0,0,0,0,0,0,0,0,0,0,0,0,0,0,0,0,0,0,0,0,0,0,0,0,0,0,0,0,0,0,0,0,0,0,0,0,0,0,0,0,0,0,0,0,0,0,0,0,0,0,0,0,0,0,0,0,0,0,0,0,0,0,0,0,0,0],"id":0,"left_children":[1,3,5,7,9,11,13,15,17,19,21,23,25,27,29,31,33,35,-1,37,39,41,43,45,47,49,51,53,55,57,59,-1,61,-1,-1,63,65,67,69,71,73,75,77,-1,79,81,83,85,87,89,91,93,95,97,99,101,103,105,107,109,111,-1,-1,113,115,117,-1,119,121,123,125,127,129,-1,131,-1,133,135,137,-1,-1,139,141,143,145,147,149,151,153,155,157,159,161,163,165,167,169,171,-1,173,175,177,179,181,-1,183,-1,185,187,189,191,193,-1,-1,-1,-1,-1,-1,-1,-1,-1,-1,-1,-1,-1,-1,-1,-1,-1,-1,-1,-1,-1,-1,-1,-1,-1,-1,-1,-1,-1,-1,-1,-1,-1,-1,-1,-1,-1,-1,-1,-1,-1,-1,-1,-1,-1,-1,-1,-1,-1,-1,-1,-1,-1,-1,-1,-1,-1,-1,-1,-1,-1,-1,-1,-1,-1,-1,-1,-1,-1,-1,-1,-1,-1,-1,-1,-1,-1,-1,-1,-1,-1,-1,-1],"loss_changes":[5.5936562E3,6.4009375E2,2.0440312E3,5.2984375E1,7.139453E2,1.5806562E3,2.606836E2,1.3720703E-1,7.7128906E0,3.9284766E2,8.1503174E1,6.4036816E2,1.712375E3,1.5742188E2,3.5483594E2,8.544922E-3,1.2207031E-3,3.0234375E0,0E0,3.7671484E2,1.5077832E2,4.7906494E0,6.2333984E0,2.4267139E2,3.232129E2,8.5884375E2,2.9357812E2,4.871875E1,5.4911133E1,7.1140625E1,5.1617188E1,0E0,2.5634766E-3,0E0,0E0,9.707031E-1,4.53125E-1,7.5714355E1,1.9208984E2,2.7001953E-1,2.6339111E0,1.0483093E0,4.852295E-1,0E0,5.8502197E-2,1.8112793E0,9.679199E1,6.400391E1,7.468506E0,2.7759375E2,2.60125E2,1.7885742E2,5.4478516E1,1.1796875E0,5.124121E1,3.4274414E1,7.3632812E0,2.4910889E0,4.928711E1,3.942578E1,4.0094604E0,0E0,0E0,8.28125E-1,4.5898438E-2,3.6035156E-1,0E0,9.935425E0,8.634277E0,1.0206836E2,7.535742E1,3.887329E-1,7.8125E-3,0E0,8.71582E-2,0E0,4.7592163E-2,9.851074E-2,1.1932373E-2,0E0,0E0,1.5286865E0,2.5395508E0,1.0385132E-1,7.9852295E1,1.8504395E1,2.6979004E1,8.560791E-1,9.6920776E-1,2.7987305E1,1.058125E2,6.829297E1,1.5429688E2,3.0501953E1,9.558789E1,4.2152344E1,3.3869385E1,4.987793E-1,0E0,1.0337402E1,2.3844727E1,1.2184448E0,2.5532227E1,6.388672E0,0E0,4.2492676E-1,0E0,2.0070557E1,5.9573975E0,1.5060547E1,2.2929688E1,6.098633E-1,0E0,0E0,0E0,0E0,0E0,0E0,0E0,0E0,0E0,0E0,0E0,0E0,0E0,0E0,0E0,0E0,0E0,0E0,0E0,0E0,0E0,0E0,0E0,0E0,0E0,0E0,0E0,0E0,0E0,0E0,0E0,0E0,0E0,0E0,0E0,0E0,0E0,0E0,0E0,0E0,0E0,0E0,0E0,0E0,0E0,0E0,0E0,0E0,0E0,0E0,0E0,0E0,0E0,0E0,0E0,0E0,0E0,0E0,0E0,0E0,0E0,0E0,0E0,0E0,0E0,0E0,0E0,0E0,0E0,0E0,0E0,0E0,0E0,0E0,0E0,0E0,0E0,0E0,0E0,0E0,0E0,0E0,0E0],"parents":[2147483647,0,0,1,1,2,2,3,3,4,4,5,5,6,6,7,7,8,8,9,9,10,10,11,11,12,12,13,13,14,14,15,15,16,16,17,17,19,19,20,20,21,21,22,22,23,23,24,24,25,25,26,26,27,27,28,28,29,29,30,30,32,32,35,35,36,36,37,37,38,38,39,39,40,40,41,41,42,42,44,44,45,45,46,46,47,47,48,48,49,49,50,50,51,51,52,52,53,53,54,54,55,55,56,56,57,57,58,58,59,59,60,60,63,63,64,64,65,65,67,67,68,68,69,69,70,70,71,71,72,72,74,74,76,76,77,77,78,78,81,81,82,82,83,83,84,84,85,85,86,86,87,87,88,88,89,89,90,90,91,91,92,92,93,93,94,94,95,95,96,96,97,97,99,99,100,100,101,101,102,102,103,103,105,105,107,107,108,108,109,109,110,110,111,111],"right_children":[2,4,6,8,10,12,14,16,18,20,22,24,26,28,30,32,34,36,-1,38,40,42,44,46,48,50,52,54,56,58,60,-1,62,-1,-1,64,66,68,70,72,74,76,78,-1,80,82,84,86,88,90,92,94,96,98,100,102,104,106,108,110,112,-1,-1,114,116,118,-1,120,122,124,126,128,130,-1,132,-1,134,136,138,-1,-1,140,142,144,146,148,150,152,154,156,158,160,162,164,166,168,170,172,-1,174,176,178,180,182,-1,184,-1,186,188,190,192,194,-1,-1,-1,-1,-1,-1,-1,-1,-1,-1,-1,-1,-1,-1,-1,-1,-1,-1,-1,-1,-1,-1,-1,-1,-1,-1,-1,-1,-1,-1,-1,-1,-1,-1,-1,-1,-1,-1,-1,-1,-1,-1,-1,-1,-1,-1,-1,-1,-1,-1,-1,-1,-1,-1,-1,-1,-1,-1,-1,-1,-1,-1,-1,-1,-1,-1,-1,-1,-1,-1,-1,-1,-1,-1,-1,-1,-1,-1,-1,-1,-1,-1,-1],"split_conditions":[-1.4182022E-2,-1.8925631E0,-1.6705552E-1,-1.339502E-2,-1.4688566E-2,-3.1763677E-2,2.255866E0,3.1390524E-1,5.252435E-1,4.1248134E-1,-3.147518E-2,-8.241666E-1,2.3011591E-2,-1.5545727E-4,-3.1304047E-2,1.8816164E-1,4.9395877E-1,2.2120371E-1,1.3462392E0,-8.395184E-1,8.1048E-1,-5.6814146E-1,-6.2544805E-1,-1.3644075E-2,2.9313762E-2,3.3854274E-3,7.9224914E-2,-1.2193537E-1,-3.230241E-1,-1.1538126E-1,8.404042E-2,1.0978829E0,2.81254E-1,1.1078635E0,1.112001E0,1.091456E-1,-2.8608248E-2,-1.860831E-1,-5.6976818E-2,-6.178896E-2,3.2520473E-2,-3.2058492E-2,2.9473233E-1,9.8952085E-1,7.718365E-2,-1.3989403E-2,-1.1093298E-1,-8.027986E-3,-3.229873E-2,-1.8925631E0,-6.024003E-2,-1.4173899E0,-1.4173899E0,-7.3979497E-1,-6.119029E-1,-2.6101077E-1,-2.7904008E-2,-1.9307804E-1,-3.723697E-1,1.9474355E0,5.1972327E0,1.1041695E0,1.0974414E0,-7.573302E-1,3.2281178E-1,3.2281178E-1,1.2662401E0,-1.02673694E-1,-1.980916E-2,-8.059981E-2,-3.1225726E-2,-6.4459044E-1,-6.110141E-1,1.115533E0,-3.509252E-1,5.953055E-1,-4.6945274E-1,-3.07264E-1,3.6108062E-1,8.115784E-1,8.3566016E-1,-1.4172974E-2,-4.0597236E-1,-2.559317E-1,-5.3222513E-1,-9.199718E-3,-6.3847744E-1,-1.0209566E-1,4.4103637E-1,-2.8743785E-2,-3.8846684E-1,3.2520473E-2,-1.4173899E0,-5.169739E-1,-2.7993986E-2,4.706974E0,9.604001E-1,-5.6142304E-2,9.916449E-1,-1.1279097E-2,-2.8525097E-2,5.099879E-1,-1.3473654E-1,-2.8892266E-2,6.62227E-1,-4.62469E-1,9.579764E-1,-6.2544805E-1,5.9153833E0,2.950239E0,-4.763484E-2,-3.0547649E-2,7.237746E-1,1.217361E0,1.1958072E0,1.1820695E0,1.1905493E0,1.2209897E0,1.2352563E0,1.0887549E0,1.2715864E0,1.5948637E0,1.4423847E0,9.563554E-1,1.0705233E0,3.486376E-1,8.615584E-1,1.4018598E0,1.4620426E0,1.4653535E0,1.4598588E0,9.964665E-1,1.0169957E0,6.613696E-1,6.415878E-1,5.543767E-1,5.7438105E-1,5.218282E-1,5.310661E-1,5.5013996E-1,6.0439724E-1,5.9148747E-1,5.506335E-1,7.7297854E-1,8.000474E-1,4.0755084E-1,2.1818489E-1,8.1506026E-1,9.4806886E-1,8.07251E-1,7.008039E-1,5.082849E-1,4.6766183E-1,5.3942996E-1,6.054633E-1,1.0397608E0,1.1736482E0,8.483301E-1,9.3653595E-1,8.1888574E-1,9.5137316E-1,8.917198E-1,7.507049E-1,8.1186354E-1,7.3117095E-1,6.978099E-1,6.068674E-1,6.0590285E-1,4.453331E-1,5.685394E-1,4.4237998E-1,1.056261E0,1.0225948E0,9.7516596E-1,1.1070262E0,8.352666E-1,9.368262E-1,8.342467E-1,9.118003E-1,4.7942778E-1,6.8695474E-1,7.737183E-1,8.334715E-1,1.0921724E0,1.0438504E0,7.8476244E-1,9.374046E-1,6.872562E-1,5.8540404E-1,1.0375384E0,1.1008072E0,9.1720647E-1,1.012155E0,8.401225E-1,8.939453E-1],"split_indices":[59,1,33,58,59,24,11,60,35,37,24,4,59,59,24,60,60,31,0,60,6,57,0,59,59,59,58,5,54,58,60,0,60,0,0,60,24,8,58,58,7,24,21,0,60,59,58,59,24,1,58,3,3,5,60,60,24,60,60,15,10,0,0,20,60,60,0,58,59,58,24,60,60,0,57,0,60,20,23,0,0,59,30,60,27,59,60,58,0,24,6,7,3,2,24,0,60,60,0,59,24,11,55,24,0,60,0,0,45,16,60,24,0,0,0,0,0,0,0,0,0,0,0,0,0,0,0,0,0,0,0,0,0,0,0,0,0,0,0,0,0,0,0,0,0,0,0,0,0,0,0,0,0,0,0,0,0,0,0,0,0,0,0,0,0,0,0,0,0,0,0,0,0,0,0,0,0,0,0,0,0,0,0,0,0,0,0,0,0,0,0,0,0,0,0],"split_type":[0,0,0,0,0,0,0,0,0,0,0,0,0,0,0,0,0,0,0,0,0,0,0,0,0,0,0,0,0,0,0,0,0,0,0,0,0,0,0,0,0,0,0,0,0,0,0,0,0,0,0,0,0,0,0,0,0,0,0,0,0,0,0,0,0,0,0,0,0,0,0,0,0,0,0,0,0,0,0,0,0,0,0,0,0,0,0,0,0,0,0,0,0,0,0,0,0,0,0,0,0,0,0,0,0,0,0,0,0,0,0,0,0,0,0,0,0,0,0,0,0,0,0,0,0,0,0,0,0,0,0,0,0,0,0,0,0,0,0,0,0,0,0,0,0,0,0,0,0,0,0,0,0,0,0,0,0,0,0,0,0,0,0,0,0,0,0,0,0,0,0,0,0,0,0,0,0,0,0,0,0,0,0,0,0,0,0,0,0,0,0,0,0,0,0],"sum_hessian":[1.0722E4,1.524E3,9.198E3,4.95E2,1.029E3,7.707E3,1.491E3,1.08E2,3.87E2,9.3E2,9.9E1,1.002E3,6.705E3,6.63E2,8.28E2,6.6E1,4.2E1,3.78E2,9E0,8.49E2,8.1E1,8.1E1,1.8E1,5.52E2,4.5E2,4.785E3,1.92E3,3.36E2,3.27E2,1.74E2,6.54E2,4.2E1,2.4E1,1.8E1,2.4E1,2.13E2,1.65E2,5.4E1,7.95E2,5.7E1,2.4E1,2.4E1,5.7E1,9E0,9E0,2.19E2,3.33E2,3.36E2,1.14E2,1.26E3,3.525E3,1.317E3,6.03E2,5.7E1,2.79E2,9.3E1,2.34E2,2.1E1,1.53E2,6.27E2,2.7E1,1.8E1,6E0,1.49E2,6.4E1,1.59E2,6E0,2.4E1,3E1,6.33E2,1.62E2,9E0,4.8E1,6E0,1.8E1,1.2E1,1.2E1,4.2E1,1.5E1,5E0,4E0,9.6E1,1.23E2,1.2E1,3.21E2,8.7E1,2.49E2,9.6E1,1.8E1,1.26E2,1.134E3,3.18E2,3.207E3,3.84E2,9.33E2,4.29E2,1.74E2,4.8E1,9E0,5.4E1,2.25E2,1.9E1,7.4E1,2.28E2,6E0,1.5E1,6E0,8.7E1,6.6E1,3.99E2,2.28E2,2.1E1,6E0,8.6E1,6.3E1,2.5E1,3.9E1,1.02E2,5.7E1,1.2E1,1.2E1,1.5E1,1.5E1,3.03E2,3.3E2,6E0,1.56E2,4E0,5E0,2.4E1,2.4E1,9E0,9E0,8E0,4E0,3.6E1,6E0,6E0,9E0,1.2E1,8.4E1,6.3E1,6E1,6E0,6E0,2.67E2,5.4E1,5.1E1,3.6E1,6.5E1,1.84E2,1.2E1,8.4E1,9E0,9E0,6.3E1,6.3E1,6.69E2,4.65E2,1.41E2,1.77E2,1.65E2,3.042E3,1.68E2,2.16E2,4.56E2,4.77E2,3.93E2,3.6E1,7.7E1,9.7E1,3.6E1,1.2E1,3.6E1,1.8E1,1.59E2,6.6E1,1.3E1,6E0,1.5E1,5.9E1,4.5E1,1.83E2,7E0,8E0,6.3E1,2.4E1,5.1E1,1.5E1,2.97E2,1.02E2,7.8E1,1.5E2,1.5E1,6E0],"tree_param":{"num_deleted":"0","num_feature":"61","num_nodes":"195","size_leaf_vector":"0"}},{"base_weights":[4.8750043E0,6.39745E0,4.622753E0,7.199155E0,6.01179E0,4.444856E0,5.542305E0,6.667759E0,7.3474503E0,6.244963E0,3.821369E0,3.439728E0,4.595063E0,5.141385E0,5.863331E0,6.642687E0,6.7071457E0,7.328747E0,8.132933E0,6.0727205E0,8.050315E0,3.4543757E0,5.4728093E0,2.8204355E0,4.199393E0,5.3849964E0,4.3567486E0,5.5538287E0,4.7175884E0,4.774414E0,6.153042E0,6.6325545E0,6.6603956E0,6.699131E0,6.727137E0,7.2611604E0,7.415991E0,8.2656355E0,5.923767E0,8.809908E0,6.246257E0,3.7760506E0,3.3189254E0,5.9779167E0,4.967644E0,3.4917665E0,2.3373265E0,4.6229377E0,2.9510462E0,6.4001975E0,5.234179E0,4.682151E0,3.9469986E0,6.2766724E0,5.406149E0,4.1598687E0,4.9392443E0,6.255269E0,4.571156E0,6.203061E0,4.991466E0,6.6466374E0,6.621969E0,6.694128E0,6.649121E0,7.3013287E0,7.1754994E0,7.4071703E0,7.649641E0,7.129697E0,9.174367E0,6.1252327E0,5.0356708E0,8.671005E0,8.83594E0,6.739186E0,6.081917E0,3.5963733E0,3.9556878E0,3.3663886E0,3.1859972E0,4.9029284E0,5.048412E0,2.9413946E0,3.5219219E0,2.5573916E0,9.8758507E-1,5.2564626E0,4.401583E0,2.8559303E0,3.458305E0,6.6623993E0,5.784015E0,6.027318E0,5.119435E0,4.935181E0,4.526144E0,4.023978E0,3.03237E0,6.3302717E0,5.990749E0,6.1567364E0,5.2260056E0,5.187851E0,3.8959203E0,4.9639416E0,4.0006623E0,6.4424014E0,5.7873507E0,4.9953146E0,4.0120306E0,6.365711E0,5.9184213E0,5.168294E0,4.372485E0,7.3606286E0,7.224136E0,7.1572504E0,7.197263E0,7.3762693E0,7.462457E0,6.5774107E0,7.6819367E0,9.899161E0,8.863711E0,2.4616532E0,6.1768317E0,4.898456E0,5.415636E0,8.468953E0,8.832528E0,8.852526E0,8.81933E0,6.019877E0,6.1438975E0,3.9954822E0,3.8759775E0,3.3491125E0,3.4699647E0,3.147862E0,3.2113683E0,2.9706168E0,2.9120946E0,3.5606844E0,3.3248646E0,4.7515435E0,2.4576554E0,6.1640865E-1,2.472241E0,4.7485003E0,5.566875E0,4.802195E0,4.1976323E0,3.0706625E0,2.8252487E0,3.258817E0,3.6577396E0,6.281425E0,6.970102E0,6.001017E0,5.458491E0,5.3302217E0,6.141126E0,4.641578E0,5.2930503E0,4.800916E0,5.5548615E0,4.566786E0,3.8793592E0,4.217595E0,3.7606072E0,3.4253488E0,2.7007897E0,6.568508E0,6.296225E0,5.9864783E0,7.007967E0,5.307034E0,4.0915747E0,5.03987E0,5.5083904E0,4.284516E0,3.219459E0,5.333896E0,4.907885E0,6.5980577E0,6.306134E0,4.740924E0,5.663069E0,4.1214514E0,3.3189812E0,6.670311E0,6.269202E0,5.680137E0,6.258097E0,5.026702E0,5.3570266E0],"categories":[],"categories_nodes":[],"categories_segments":[],"categories_sizes":[],"default_left":[1,1,1,1,1,1,1,1,1,1,1,1,1,1,1,1,1,1,0,1,1,1,1,1,1,1,1,1,1,1,1,1,1,0,0,1,1,1,1,1,1,1,1,0,1,1,1,1,1,1,1,1,1,1,1,1,1,1,1,1,1,0,0,0,0,1,1,1,0,1,1,1,1,1,1,0,1,0,1,1,1,0,0,1,1,1,1,1,1,1,1,1,1,1,1,1,1,1,1,1,0,1,1,1,1,1,0,1,0,1,1,1,1,1,0,0,0,0,0,0,0,0,0,0,0,0,0,0,0,0,0,0,0,0,0,0,0,0,0,0,0,0,0,0,0,0,0,0,0,0,0,0,0,0,0,0,0,0,0,0,0,0,0,0,0,0,0,0,0,0,0,0,0,0,0,0,0,0,0,0,0,0,0,0,0,0,0,0,0,0,0,0,0,0,0,0,0],"id":1,"left_children":[1,3,5,7,9,11,13,15,17,19,21,23,25,27,29,31,33,35,-1,37,39,41,43,45,47,49,51,53,55,57,59,61,63,-1,-1,65,67,69,71,73,75,77,79,-1,81,83,85,87,89,91,93,95,97,99,101,103,105,107,109,111,113,-1,-1,-1,-1,115,117,119,-1,121,123,125,127,129,131,-1,133,-1,135,137,139,-1,-1,141,143,145,147,149,151,153,155,157,159,161,163,165,167,169,171,173,-1,175,177,179,181,183,-1,185,-1,187,189,191,193,195,-1,-1,-1,-1,-1,-1,-1,-1,-1,-1,-1,-1,-1,-1,-1,-1,-1,-1,-1,-1,-1,-1,-1,-1,-1,-1,-1,-1,-1,-1,-1,-1,-1,-1,-1,-1,-1,-1,-1,-1,-1,-1,-1,-1,-1,-1,-1,-1,-1,-1,-1,-1,-1,-1,-1,-1,-1,-1,-1,-1,-1,-1,-1,-1,-1,-1,-1,-1,-1,-1,-1,-1,-1,-1,-1,-1,-1,-1,-1,-1,-1,-1,-1],"loss_changes":[4.1176562E3,4.711914E2,1.5046719E3,3.9001953E1,5.255508E2,1.1635625E3,1.9189844E2,1.00097656E-1,5.6777344E0,2.891914E2,5.9996582E1,4.7139258E2,1.2622344E3,1.1588086E2,2.6120508E2,5.6152344E-3,4.8828125E-4,2.2246094E0,0E0,2.7731055E2,1.1099121E2,3.526062E0,4.5878296E0,1.790249E2,2.3792578E2,2.3792969E2,6.867969E2,3.5862305E1,4.042041E1,5.2368164E1,3.799414E1,1.2207031E-4,2.8076172E-3,0E0,0E0,7.2558594E-1,3.330078E-1,5.5734375E1,1.4223828E2,1.9726562E-1,1.9381714E0,7.7130127E-1,3.567505E-1,0E0,4.2510986E-2,3.8310547E0,9.534546E1,4.7114258E1,5.4976196E0,3.246875E1,1.23125E2,1.13328125E2,1.6052344E2,8.679199E-1,3.7720215E1,2.5230225E1,5.42041E0,1.8331299E0,3.6281006E1,2.9021484E1,2.9509277E0,0E0,0E0,0E0,0E0,6.557617E-1,2.0019531E-2,2.6367188E-1,0E0,7.3131104E0,6.745117E0,1.22490234E2,7.6589355E0,2.850952E-1,4.638672E-3,0E0,6.347656E-2,0E0,3.4561157E-2,7.220459E-2,1.1734009E-2,0E0,0E0,7.7285767E-3,1.6696777E0,6.039563E1,2.4796852E1,1.3713135E1,2.0340332E1,6.298828E-1,7.1310425E-1,1.652246E1,4.2331543E0,1.3561035E1,9.805859E1,9.110156E1,4.6679688E1,1.07234375E2,2.3061035E1,3.8354492E-1,0E0,7.8199463E0,2.0678223E1,8.963318E-1,1.9448975E1,4.723633E0,0E0,3.1207275E-1,0E0,1.4773926E1,5.001831E0,1.172168E1,1.8447754E1,5.563965E-1,0E0,0E0,0E0,0E0,0E0,0E0,0E0,0E0,0E0,0E0,0E0,0E0,0E0,0E0,0E0,0E0,0E0,0E0,0E0,0E0,0E0,0E0,0E0,0E0,0E0,0E0,0E0,0E0,0E0,0E0,0E0,0E0,0E0,0E0,0E0,0E0,0E0,0E0,0E0,0E0,0E0,0E0,0E0,0E0,0E0,0E0,0E0,0E0,0E0,0E0,0E0,0E0,0E0,0E0,0E0,0E0,0E0,0E0,0E0,0E0,0E0,0E0,0E0,0E0,0E0,0E0,0E0,0E0,0E0,0E0,0E0,0E0,0E0,0E0,0E0,0E0,0E0,0E0,0E0,0E0,0E0,0E0,0E0],"parents":[2147483647,0,0,1,1,2,2,3,3,4,4,5,5,6,6,7,7,8,8,9,9,10,10,11,11,12,12,13,13,14,14,15,15,16,16,17,17,19,19,20,20,21,21,22,22,23,23,24,24,25,25,26,26,27,27,28,28,29,29,30,30,31,31,32,32,35,35,36,36,37,37,38,38,39,39,40,40,41,41,42,42,44,44,45,45,46,46,47,47,48,48,49,49,50,50,51,51,52,52,53,53,54,54,55,55,56,56,57,57,58,58,59,59,60,60,65,65,66,66,67,67,69,69,70,70,71,71,72,72,73,73,74,74,76,76,78,78,79,79,80,80,83,83,84,84,85,85,86,86,87,87,88,88,89,89,90,90,91,91,92,92,93,93,94,94,95,95,96,96,97,97,98,98,99,99,101,101,102,102,103,103,104,104,105,105,107,107,109,109,110,110,111,111,112,112,113,113],"right_children":[2,4,6,8,10,12,14,16,18,20,22,24,26,28,30,32,34,36,-1,38,40,42,44,46,48,50,52,54,56,58,60,62,64,-1,-1,66,68,70,72,74,76,78,80,-1,82,84,86,88,90,92,94,96,98,100,102,104,106,108,110,112,114,-1,-1,-1,-1,116,118,120,-1,122,124,126,128,130,132,-1,134,-1,136,138,140,-1,-1,142,144,146,148,150,152,154,156,158,160,162,164,166,168,170,172,174,-1,176,178,180,182,184,-1,186,-1,188,190,192,194,196,-1,-1,-1,-1,-1,-1,-1,-1,-1,-1,-1,-1,-1,-1,-1,-1,-1,-1,-1,-1,-1,-1,-1,-1,-1,-1,-1,-1,-1,-1,-1,-1,-1,-1,-1,-1,-1,-1,-1,-1,-1,-1,-1,-1,-1,-1,-1,-1,-1,-1,-1,-1,-1,-1,-1,-1,-1,-1,-1,-1,-1,-1,-1,-1,-1,-1,-1,-1,-1,-1,-1,-1,-1,-1,-1,-1,-1,-1,-1,-1,-1,-1,-1],"split_conditions":[-1.4182022E-2,-1.8925631E0,-1.6705552E-1,-1.339502E-2,-1.4688566E-2,-3.1763677E-2,2.255866E0,3.1390524E-1,5.252435E-1,4.1248134E-1,-3.147518E-2,-8.241666E-1,6.3453717E-3,-1.5545727E-4,-3.1304047E-2,1.8816164E-1,5.7058036E-1,2.2120371E-1,1.1550457E0,-8.395184E-1,8.1048E-1,-5.6814146E-1,-6.2544805E-1,-1.1573536E-2,2.9313762E-2,-1.3389142E0,-9.02441E-3,-1.2193537E-1,-3.230241E-1,-1.1538126E-1,8.404042E-2,-1.0479267E-1,2.1840033E-1,9.514161E-1,9.5539355E-1,5.514405E-2,-2.8608248E-2,-1.860831E-1,-4.099005E-1,-6.178896E-2,3.2520473E-2,-3.2058492E-2,2.9473233E-1,8.4898865E-1,7.718365E-2,-7.821569E-2,-5.3222513E-1,-8.027986E-3,-3.229873E-2,-9.790775E-3,-5.9918486E-2,-3.6646974E-1,-2.169787E-2,-7.3979497E-1,-6.119029E-1,-2.6101077E-1,-2.7904008E-2,-1.9307804E-1,-3.723697E-1,1.9474355E0,5.1972327E0,9.439609E-1,9.404575E-1,9.507056E-1,9.443136E-1,-7.573302E-1,3.7906262E-1,3.2281178E-1,1.0864083E0,-1.02673694E-1,-2.024769E-2,-3.1746425E-2,1.3965874E0,-6.4459044E-1,-6.110141E-1,9.571047E-1,-3.509252E-1,5.107599E-1,-4.6945274E-1,-3.07264E-1,8.350733E-2,6.963179E-1,7.169796E-1,-3.509252E-1,8.4005773E-1,-1.1093298E-1,-1.6720442E-1,7.018775E-1,3.2520473E-2,-1.0209566E-1,4.4103637E-1,-8.0712265E-1,-7.3979497E-1,-3.1393073E-2,-6.318772E-3,3.2520473E-2,4.4103637E-1,-5.839329E-1,-8.6703336E-1,-5.982801E-1,8.5081106E-1,-6.2544805E-1,1.6097779E0,5.099879E-1,8.1048E-1,-8.0712265E-1,5.6817734E-1,-4.62469E-1,8.2192427E-1,-6.2544805E-1,-9.3263075E-2,9.998671E-3,1.9043689E-3,-2.5619513E-1,6.2098396E-1,1.0453625E0,1.0259777E0,1.0164785E0,1.0221611E0,1.0475838E0,1.0598243E0,9.341293E-1,1.090995E0,1.405887E0,1.2588316E0,3.49606E-1,8.772387E-1,6.9568276E-1,7.691331E-1,1.2027677E0,1.2544029E0,1.2572429E0,1.2525285E0,8.5494787E-1,8.725614E-1,5.6744164E-1,5.504695E-1,4.7564372E-1,4.9280724E-1,4.4706196E-1,4.5608118E-1,4.2188945E-1,4.1357806E-1,5.0569135E-1,4.722E-1,6.748181E-1,3.4903824E-1,8.754286E-2,3.5110968E-1,6.743859E-1,7.9061216E-1,6.8201166E-1,5.961512E-1,4.36098E-1,4.0124413E-1,4.6281987E-1,5.1947516E-1,8.920931E-1,9.898996E-1,8.5226935E-1,7.752194E-1,7.570025E-1,8.7216777E-1,6.592007E-1,7.5172335E-1,6.8183005E-1,7.88906E-1,6.4857864E-1,5.509498E-1,5.989863E-1,5.3408456E-1,4.8647085E-1,3.8356838E-1,9.328649E-1,8.941951E-1,8.502046E-1,9.952772E-1,7.537093E-1,5.810888E-1,7.1576643E-1,7.8230613E-1,6.0849047E-1,4.572302E-1,7.575243E-1,6.9702184E-1,9.370616E-1,8.9560235E-1,6.733099E-1,8.0427366E-1,5.853319E-1,4.7136444E-1,9.47323E-1,8.9035726E-1,8.066977E-1,8.887801E-1,7.1389633E-1,7.608093E-1],"split_indices":[59,1,33,58,59,24,11,60,35,37,24,4,59,59,24,60,60,31,0,60,6,57,0,59,59,27,58,5,54,58,60,60,60,0,0,60,24,8,60,58,7,24,21,0,60,58,27,59,24,59,58,29,24,5,60,60,24,60,60,15,10,0,0,0,0,20,60,60,0,58,59,24,21,60,60,0,57,0,60,20,57,0,0,57,55,58,3,5,7,58,0,21,5,24,59,7,0,3,23,60,0,0,6,11,6,21,0,60,0,0,58,59,60,21,0,0,0,0,0,0,0,0,0,0,0,0,0,0,0,0,0,0,0,0,0,0,0,0,0,0,0,0,0,0,0,0,0,0,0,0,0,0,0,0,0,0,0,0,0,0,0,0,0,0,0,0,0,0,0,0,0,0,0,0,0,0,0,0,0,0,0,0,0,0,0,0,0,0,0,0,0,0,0,0,0,0,0],"split_type":[0,0,0,0,0,0,0,0,0,0,0,0,0,0,0,0,0,0,0,0,0,0,0,0,0,0,0,0,0,0,0,0,0,0,0,0,0,0,0,0,0,0,0,0,0,0,0,0,0,0,0,0,0,0,0,0,0,0,0,0,0,0,0,0,0,0,0,0,0,0,0,0,0,0,0,0,0,0,0,0,0,0,0,0,0,0,0,0,0,0,0,0,0,0,0,0,0,0,0,0,0,0,0,0,0,0,0,0,0,0,0,0,0,0,0,0,0,0,0,0,0,0,0,0,0,0,0,0,0,0,0,0,0,0,0,0,0,0,0,0,0,0,0,0,0,0,0,0,0,0,0,0,0,0,0,0,0,0,0,0,0,0,0,0,0,0,0,0,0,0,0,0,0,0,0,0,0,0,0,0,0,0,0,0,0,0,0,0,0,0,0,0,0,0,0,0,0],"sum_hessian":[1.0722E4,1.524E3,9.198E3,4.95E2,1.029E3,7.707E3,1.491E3,1.08E2,3.87E2,9.3E2,9.9E1,1.002E3,6.705E3,6.63E2,8.28E2,6.6E1,4.2E1,3.78E2,9E0,8.49E2,8.1E1,8.1E1,1.8E1,5.52E2,4.5E2,1.554E3,5.151E3,3.36E2,3.27E2,1.74E2,6.54E2,4.2E1,2.4E1,3E1,1.2E1,2.13E2,1.65E2,5.4E1,7.95E2,5.7E1,2.4E1,2.4E1,5.7E1,9E0,9E0,2.31E2,3.21E2,3.36E2,1.14E2,2.01E2,1.353E3,2.871E3,2.28E3,5.7E1,2.79E2,9.3E1,2.34E2,2.1E1,1.53E2,6.27E2,2.7E1,1.8E1,2.4E1,6E0,1.8E1,1.45E2,6.8E1,1.59E2,6E0,2.4E1,3E1,6.48E2,1.47E2,9E0,4.8E1,6E0,1.8E1,1.2E1,1.2E1,4.2E1,1.5E1,5E0,4E0,1.2E1,2.19E2,2.76E2,4.5E1,8.7E1,2.49E2,9.6E1,1.8E1,1.41E2,6E1,1.71E2,1.182E3,1.095E3,1.776E3,2.103E3,1.77E2,4.8E1,9E0,5.4E1,2.25E2,1.9E1,7.4E1,2.28E2,6E0,1.5E1,6E0,8.7E1,6.6E1,3.99E2,2.28E2,2.1E1,6E0,8.2E1,6.3E1,3.7E1,3.1E1,1.02E2,5.7E1,1.2E1,1.2E1,9E0,2.1E1,9E0,6.39E2,1.08E2,3.9E1,4E0,5E0,2.4E1,2.4E1,9E0,9E0,8E0,4E0,3.6E1,6E0,6E0,9E0,6E0,6E0,1.83E2,3.6E1,1.2E1,2.64E2,3.6E1,9E0,3.3E1,5.4E1,8.4E1,1.65E2,1.2E1,8.4E1,9E0,9E0,6.3E1,7.8E1,3.6E1,2.4E1,2.4E1,1.47E2,3.15E2,8.67E2,9E2,1.95E2,1.671E3,1.05E2,1.212E3,8.91E2,8.1E1,9.6E1,6E0,4.2E1,4.5E1,9E0,2.1E2,1.5E1,1.3E1,6E0,4.7E1,2.7E1,3E1,1.98E2,7E0,8E0,6.3E1,2.4E1,5.7E1,9E0,9.6E1,3.03E2,1.34E2,9.4E1,1.2E1,9E0],"tree_param":{"num_deleted":"0","num_feature":"61","num_nodes":"197","size_leaf_vector":"0"}},{"base_weights":[4.182653E0,5.488881E0,3.9662263E0,6.1767273E0,5.1579924E0,3.813594E0,4.7551837E0,5.7208023E0,6.303961E0,5.3580494E0,3.2786613E0,2.9512162E0,3.9424684E0,4.411203E0,5.030617E0,5.6992903E0,5.754594E0,6.2879133E0,6.977889E0,5.2102685E0,6.9070086E0,2.9637876E0,4.695565E0,2.4198759E0,3.6029925E0,4.1834903E0,3.341797E0,4.7650704E0,4.047594E0,4.0963507E0,5.279183E0,5.6905956E0,5.7144847E0,5.7414355E0,5.7644405E0,6.2299256E0,6.3627667E0,7.091748E0,5.082469E0,7.558723E0,5.3591657E0,3.2397792E0,2.8475726E0,5.12893E0,4.262145E0,2.995864E0,2.0053782E0,3.9663846E0,2.531938E0,4.7367597E0,4.0007586E0,3.5566242E0,2.8725965E0,5.3852572E0,4.638364E0,3.5690832E0,4.2377696E0,5.366899E0,3.9219582E0,5.322098E0,4.28258E0,5.72409E0,5.6855807E0,6.262047E0,6.1498785E0,6.3551984E0,6.5632367E0,6.117136E0,7.87142E0,5.2661533E0,4.3647356E0,7.4395537E0,7.581055E0,5.7820845E0,5.2181635E0,3.4396384E0,3.119832E0,2.888293E0,2.7335243E0,4.206613E0,4.331436E0,2.5236616E0,3.021736E0,2.194189E0,8.4732896E-1,4.5099363E0,3.776467E0,2.4503295E0,2.9671578E0,5.767539E0,4.6144633E0,4.640857E0,3.9386814E0,4.0288653E0,3.3622608E0,3.0268593E0,2.4922564E0,5.4312434E0,5.13994E0,5.2823534E0,4.483804E0,4.451073E0,3.3426197E0,4.258959E0,3.4324865E0,5.527453E0,4.96543E0,4.2858768E0,3.44224E0,5.461648E0,5.077883E0,4.434293E0,3.7515037E0,5.7111826E0,5.749818E0,6.307265E0,6.1981583E0,6.1117425E0,6.171377E0,6.3286853E0,6.402633E0,5.2920594E0,6.3921323E0,7.23209E0,8.145391E0,7.25625E0,5.207906E0,1.7565935E0,4.465046E0,7.2661915E0,7.578131E0,7.595284E0,7.5668035E0,5.1649313E0,5.2713385E0,3.3789697E0,3.488078E0,3.085595E0,3.1588933E0,2.8734689E0,2.9771593E0,2.761301E0,2.6917825E0,2.5528848E0,2.4943624E0,3.1130114E0,2.9504929E0,4.076727E0,2.1086173E0,5.2886593E-1,2.1211324E0,4.2476296E0,5.008303E0,4.2528915E0,3.6081622E0,2.6345654E0,2.4240046E0,2.7959983E0,3.1382656E0,6.666701E0,5.555966E0,4.286839E0,4.8262753E0,4.2573357E0,4.946372E0,4.7353086E0,3.8956618E0,4.2997437E0,3.8181794E0,3.468735E0,2.6610851E0,3.0998886E0,2.229611E0,2.8609724E0,2.19956E0,5.480467E0,5.2835298E0,5.04099E0,5.7650514E0,4.3086057E0,4.9058657E0,4.7486863E0,4.3136744E0,3.547914E0,2.2818935E0,3.9771821E0,4.3282456E0,5.6609993E0,5.4105344E0,4.067614E0,4.858796E0,3.767781E0,3.2168531E0,5.3713126E0,5.724678E0,4.7343497E0,5.2565165E0,4.3427067E0,4.6631746E0],"categories":[],"categories_nodes":[],"categories_segments":[],"categories_sizes":[],"default_left":[1,1,1,1,1,1,1,1,1,1,1,1,1,1,1,1,1,1,0,1,1,1,1,1,1,1,1,1,1,1,1,0,1,0,0,1,1,1,1,1,1,1,1,0,1,1,1,1,1,1,1,1,1,1,1,1,1,1,1,1,1,1,0,1,1,1,0,1,1,1,1,1,1,0,1,1,1,1,1,0,0,1,1,1,1,1,1,1,1,1,1,1,1,1,1,1,1,1,0,1,1,1,1,1,0,1,0,1,1,1,1,1,0,0,0,0,0,0,0,0,0,0,0,0,0,0,0,0,0,0,0,0,0,0,0,0,0,0,0,0,0,0,0,0,0,0,0,0,0,0,0,0,0,0,0,0,0,0,0,0,0,0,0,0,0,0,0,0,0,0,0,0,0,0,0,0,0,0,0,0,0,0,0,0,0,0,0,0,0,0,0,0,0,0,0,0,0,0,0],"id":2,"left_children":[1,3,5,7,9,11,13,15,17,19,21,23,25,27,29,31,33,35,-1,37,39,41,43,45,47,49,51,53,55,57,59,-1,61,-1,-1,63,65,67,69,71,73,75,77,-1,79,81,83,85,87,89,91,93,95,97,99,101,103,105,107,109,111,113,-1,115,117,119,-1,121,123,125,127,129,131,-1,133,135,137,139,141,-1,-1,143,145,147,149,151,153,155,157,159,161,163,165,167,169,171,173,175,-1,177,179,181,183,185,-1,187,-1,189,191,193,195,197,-1,-1,-1,-1,-1,-1,-1,-1,-1,-1,-1,-1,-1,-1,-1,-1,-1,-1,-1,-1,-1,-1,-1,-1,-1,-1,-1,-1,-1,-1,-1,-1,-1,-1,-1,-1,-1,-1,-1,-1,-1,-1,-1,-1,-1,-1,-1,-1,-1,-1,-1,-1,-1,-1,-1,-1,-1,-1,-1,-1,-1,-1,-1,-1,-1,-1,-1,-1,-1,-1,-1,-1,-1,-1,-1,-1,-1,-1,-1,-1,-1,-1,-1,-1,-1,-1,-1],"loss_changes":[3.031125E3,3.4685938E2,1.107625E3,2.8708984E1,3.8687305E2,8.5653906E2,1.4126172E2,7.324219E-2,4.178711E0,2.128789E2,4.416516E1,3.4700586E2,9.7071094E2,8.530371E1,1.922793E2,3.4179688E-3,1.2207031E-4,1.6357422E0,0E0,2.0413867E2,8.170288E1,2.595398E0,3.3766785E0,1.3178516E2,1.7514258E2,4.837578E2,1.9352734E2,2.6399414E1,2.9753906E1,3.8549805E1,2.7966797E1,0E0,1.4038086E-3,0E0,0E0,5.410156E-1,2.446289E-1,4.1026855E1,1.0480664E2,1.4453125E-1,1.4260864E0,5.7244873E-1,2.6226807E-1,0E0,3.0822754E-2,2.81958E0,7.0186035E1,3.468164E1,4.046692E0,1.497539E2,1.4292578E2,1.2087891E2,3.5376953E1,6.380615E-1,2.7766602E1,1.8572266E1,3.9892578E0,1.3487549E0,2.6707031E1,2.1363281E1,2.1717834E0,6.1035156E-4,0E0,4.3310547E-1,4.4433594E-2,1.9335938E-1,0E0,5.4400024E0,5.2473145E0,7.337109E1,4.238037E1,2.0904541E-1,2.1972656E-3,0E0,4.6173096E-2,2.342987E-2,1.7333984E-2,5.279541E-2,1.5037537E-2,0E0,0E0,8.110046E-3,1.4213867E0,4.445874E1,1.825359E1,1.1369019E1,1.9962402E1,4.6343994E-1,5.245819E-1,2.3964355E1,7.369336E1,3.7256836E1,1.1236719E2,2.1911621E1,6.965234E1,2.4975098E1,1.8776123E1,3.4399414E-1,0E0,6.286255E0,1.66333E1,7.7285767E-1,1.6111816E1,4.447754E0,0E0,2.2909546E-1,0E0,1.0875122E1,4.8395996E0,9.474609E0,1.3987305E1,4.3615723E-1,0E0,0E0,0E0,0E0,0E0,0E0,0E0,0E0,0E0,0E0,0E0,0E0,0E0,0E0,0E0,0E0,0E0,0E0,0E0,0E0,0E0,0E0,0E0,0E0,0E0,0E0,0E0,0E0,0E0,0E0,0E0,0E0,0E0,0E0,0E0,0E0,0E0,0E0,0E0,0E0,0E0,0E0,0E0,0E0,0E0,0E0,0E0,0E0,0E0,0E0,0E0,0E0,0E0,0E0,0E0,0E0,0E0,0E0,0E0,0E0,0E0,0E0,0E0,0E0,0E0,0E0,0E0,0E0,0E0,0E0,0E0,0E0,0E0,0E0,0E0,0E0,0E0,0E0,0E0,0E0,0E0,0E0,0E0,0E0,0E0,0E0,0E0],"parents":[2147483647,0,0,1,1,2,2,3,3,4,4,5,5,6,6,7,7,8,8,9,9,10,10,11,11,12,12,13,13,14,14,15,15,16,16,17,17,19,19,20,20,21,21,22,22,23,23,24,24,25,25,26,26,27,27,28,28,29,29,30,30,32,32,35,35,36,36,37,37,38,38,39,39,40,40,41,41,42,42,44,44,45,45,46,46,47,47,48,48,49,49,50,50,51,51,52,52,53,53,54,54,55,55,56,56,57,57,58,58,59,59,60,60,61,61,63,63,64,64,65,65,67,67,68,68,69,69,70,70,71,71,72,72,74,74,75,75,76,76,77,77,78,78,81,81,82,82,83,83,84,84,85,85,86,86,87,87,88,88,89,89,90,90,91,91,92,92,93,93,94,94,95,95,96,96,97,97,99,99,100,100,101,101,102,102,103,103,105,105,107,107,108,108,109,109,110,110,111,111],"right_children":[2,4,6,8,10,12,14,16,18,20,22,24,26,28,30,32,34,36,-1,38,40,42,44,46,48,50,52,54,56,58,60,-1,62,-1,-1,64,66,68,70,72,74,76,78,-1,80,82,84,86,88,90,92,94,96,98,100,102,104,106,108,110,112,114,-1,116,118,120,-1,122,124,126,128,130,132,-1,134,136,138,140,142,-1,-1,144,146,148,150,152,154,156,158,160,162,164,166,168,170,172,174,176,-1,178,180,182,184,186,-1,188,-1,190,192,194,196,198,-1,-1,-1,-1,-1,-1,-1,-1,-1,-1,-1,-1,-1,-1,-1,-1,-1,-1,-1,-1,-1,-1,-1,-1,-1,-1,-1,-1,-1,-1,-1,-1,-1,-1,-1,-1,-1,-1,-1,-1,-1,-1,-1,-1,-1,-1,-1,-1,-1,-1,-1,-1,-1,-1,-1,-1,-1,-1,-1,-1,-1,-1,-1,-1,-1,-1,-1,-1,-1,-1,-1,-1,-1,-1,-1,-1,-1,-1,-1,-1,-1,-1,-1,-1,-1,-1,-1],"split_conditions":[-1.4182022E-2,-1.8925631E0,-1.6705552E-1,-1.339502E-2,-1.4688566E-2,-3.1763677E-2,2.255866E0,3.1390524E-1,5.252435E-1,4.1248134E-1,-3.147518E-2,-8.241666E-1,2.3011591E-2,-1.5545727E-4,-3.1304047E-2,1.8816164E-1,4.9395877E-1,2.2120371E-1,9.9100554E-1,-8.395184E-1,8.1048E-1,-5.6814146E-1,-6.2544805E-1,-1.1573536E-2,2.9313762E-2,2.4235998E-3,7.9224914E-2,-1.2193537E-1,-3.230241E-1,-1.1538126E-1,8.404042E-2,8.081831E-1,2.81254E-1,8.154034E-1,8.186706E-1,1.523178E-1,-2.8608248E-2,-1.860831E-1,-5.6976818E-2,-6.178896E-2,3.2520473E-2,-8.0712265E-1,2.9473233E-1,7.284149E-1,7.718365E-2,-7.821569E-2,-5.3222513E-1,-8.027986E-3,-3.229873E-2,-1.8925631E0,-6.024003E-2,-1.4173899E0,-1.4173899E0,-7.3979497E-1,-6.119029E-1,-2.6101077E-1,-2.7904008E-2,-1.9307804E-1,-3.723697E-1,1.9474355E0,5.1972327E0,2.495097E-1,8.0747086E-1,-7.573302E-1,3.2281178E-1,3.2281178E-1,9.3211627E-1,-3.2032836E-2,-1.056777E-1,-8.241666E-1,-3.1225726E-2,-6.4459044E-1,-6.110141E-1,8.211764E-1,-3.509252E-1,-5.888113E-1,-5.7357395E-1,-3.07264E-1,-6.194099E-2,5.9742665E-1,6.1515415E-1,-7.9853006E-2,-1.3989403E-2,-1.1093298E-1,-1.6720442E-1,-9.079011E-3,-6.3847744E-1,-1.0209566E-1,4.4103637E-1,-7.573302E-1,-5.8469325E-3,3.2520473E-2,-1.4173899E0,-5.169739E-1,1.1509926E0,4.706974E0,9.604001E-1,-5.6142304E-2,7.2997844E-1,-1.1279097E-2,-2.8525097E-2,-1.3473654E-1,5.099879E-1,-2.8892266E-2,4.8748454E-1,-4.62469E-1,7.051944E-1,-6.2544805E-1,2.3898702E0,2.950239E0,-4.763484E-2,-3.0547649E-2,5.327916E-1,8.1110686E-1,8.165938E-1,8.957629E-1,8.802675E-1,8.6799467E-1,8.7646407E-1,8.988051E-1,9.0930724E-1,7.515826E-1,9.078159E-1,1.0271074E0,1.1568152E0,1.0305386E0,7.3963106E-1,2.4947284E-1,6.3412946E-1,1.0319505E0,1.0762525E0,1.0786885E0,1.0746436E0,7.335278E-1,7.486398E-1,4.7988406E-1,4.9537972E-1,4.382187E-1,4.4862863E-1,4.080924E-1,4.228186E-1,3.9216223E-1,3.8228917E-1,3.625628E-1,3.5425138E-1,4.4211245E-1,4.190314E-1,5.789801E-1,2.9946756E-1,7.510997E-2,3.0124497E-1,6.032519E-1,7.112833E-1,6.0399914E-1,5.124342E-1,3.7416315E-1,3.442591E-1,3.9709E-1,4.4569907E-1,9.468103E-1,7.8906286E-1,6.088204E-1,6.854316E-1,6.046303E-1,7.024878E-1,6.725124E-1,5.532651E-1,6.106531E-1,5.4226094E-1,4.926326E-1,3.779295E-1,4.4024873E-1,3.1665117E-1,4.0631765E-1,3.123833E-1,7.783404E-1,7.503712E-1,7.159255E-1,8.1875736E-1,6.119117E-1,6.967351E-1,6.744123E-1,6.126316E-1,5.0387764E-1,3.2407638E-1,5.648427E-1,6.14701E-1,8.0397975E-1,7.6840854E-1,5.776859E-1,6.9005024E-1,5.351034E-1,4.5686013E-1,7.6283824E-1,8.130235E-1,6.723762E-1,7.4653476E-1,6.167548E-1,6.6226786E-1],"split_indices":[59,1,33,58,59,24,11,60,35,37,24,4,59,59,24,60,60,31,0,60,6,57,0,59,59,59,58,5,54,58,60,0,60,0,0,60,24,8,58,58,7,21,21,0,60,58,27,59,24,1,58,3,3,5,60,60,24,60,60,15,10,60,0,20,60,60,0,24,58,4,24,60,60,0,57,60,60,20,58,0,0,58,59,58,3,59,60,58,0,20,59,7,3,2,60,0,60,60,0,59,24,55,11,24,0,60,0,0,40,16,60,24,0,0,0,0,0,0,0,0,0,0,0,0,0,0,0,0,0,0,0,0,0,0,0,0,0,0,0,0,0,0,0,0,0,0,0,0,0,0,0,0,0,0,0,0,0,0,0,0,0,0,0,0,0,0,0,0,0,0,0,0,0,0,0,0,0,0,0,0,0,0,0,0,0,0,0,0,0,0,0,0,0,0,0,0,0,0,0],"split_type":[0,0,0,0,0,0,0,0,0,0,0,0,0,0,0,0,0,0,0,0,0,0,0,0,0,0,0,0,0,0,0,0,0,0,0,0,0,0,0,0,0,0,0,0,0,0,0,0,0,0,0,0,0,0,0,0,0,0,0,0,0,0,0,0,0,0,0,0,0,0,0,0,0,0,0,0,0,0,0,0,0,0,0,0,0,0,0,0,0,0,0,0,0,0,0,0,0,0,0,0,0,0,0,0,0,0,0,0,0,0,0,0,0,0,0,0,0,0,0,0,0,0,0,0,0,0,0,0,0,0,0,0,0,0,0,0,0,0,0,0,0,0,0,0,0,0,0,0,0,0,0,0,0,0,0,0,0,0,0,0,0,0,0,0,0,0,0,0,0,0,0,0,0,0,0,0,0,0,0,0,0,0,0,0,0,0,0,0,0,0,0,0,0,0,0,0,0,0,0],"sum_hessian":[1.0722E4,1.524E3,9.198E3,4.95E2,1.029E3,7.707E3,1.491E3,1.08E2,3.87E2,9.3E2,9.9E1,1.002E3,6.705E3,6.63E2,8.28E2,6.6E1,4.2E1,3.78E2,9E0,8.49E2,8.1E1,8.1E1,1.8E1,5.52E2,4.5E2,4.785E3,1.92E3,3.36E2,3.27E2,1.74E2,6.54E2,4.2E1,2.4E1,1.8E1,2.4E1,2.13E2,1.65E2,5.4E1,7.95E2,5.7E1,2.4E1,2.4E1,5.7E1,9E0,9E0,2.31E2,3.21E2,3.36E2,1.14E2,1.188E3,3.597E3,1.317E3,6.03E2,5.7E1,2.79E2,9.3E1,2.34E2,2.1E1,1.53E2,6.27E2,2.7E1,1.8E1,6E0,1.52E2,6.1E1,1.59E2,6E0,2.4E1,3E1,6.33E2,1.62E2,9E0,4.8E1,6E0,1.8E1,9E0,1.5E1,4.2E1,1.5E1,5E0,4E0,1.2E1,2.19E2,2.76E2,4.5E1,8.7E1,2.49E2,9.6E1,1.8E1,1.26E2,1.062E3,3.18E2,3.279E3,3.84E2,9.33E2,4.29E2,1.74E2,4.8E1,9E0,5.4E1,2.25E2,1.9E1,7.4E1,2.28E2,6E0,1.5E1,6E0,8.7E1,6.6E1,3.99E2,2.28E2,2.1E1,6E0,1.2E1,6E0,8.9E1,6.3E1,2.2E1,3.9E1,1.02E2,5.7E1,6E0,1.8E1,9E0,2.1E1,1.8E1,6.15E2,6E0,1.56E2,4E0,5E0,2.4E1,2.4E1,9E0,9E0,4E0,5E0,8E0,7E0,3.6E1,6E0,9E0,6E0,6E0,6E0,9.6E1,1.23E2,1.2E1,2.64E2,3.6E1,9E0,5.7E1,3E1,6.5E1,1.84E2,1.2E1,8.4E1,9E0,9E0,2.4E1,1.02E2,4.17E2,6.45E2,1.41E2,1.77E2,1.68E2,3.111E3,1.68E2,2.16E2,8.1E2,1.23E2,3.93E2,3.6E1,7.7E1,9.7E1,3.6E1,1.2E1,3.6E1,1.8E1,1.59E2,6.6E1,6E0,1.3E1,6.2E1,1.2E1,4.5E1,1.83E2,7E0,8E0,6.3E1,2.4E1,2.7E1,3.9E1,2.97E2,1.02E2,7.8E1,1.5E2,1.5E1,6E0],"tree_param":{"num_deleted":"0","num_feature":"61","num_nodes":"199","size_leaf_vector":"0"}},{"base_weights":[3.5886297E0,4.7093472E0,3.40294E0,5.2995057E0,4.4254518E0,3.2719846E0,4.0798497E0,4.908333E0,5.4086685E0,4.606575E0,2.88087E0,2.532083E0,3.382556E0,3.7847216E0,4.316166E0,4.8898764E0,4.9373236E0,5.3949003E0,5.986886E0,4.4793367E0,5.9260755E0,2.5264616E0,4.1212792E0,3.0648537E0,2.0480218E0,3.5893476E0,2.8671925E0,4.0883327E0,3.4727528E0,3.514586E0,4.5294294E0,4.882413E0,4.9029155E0,5.3451476E0,5.4591227E0,6.084577E0,4.3690524E0,6.485231E0,4.598059E0,2.7651782E0,2.4309673E0,4.3999095E0,3.6568408E0,3.3824425E0,2.1200233E0,2.5703897E0,1.6375881E0,4.036139E0,3.4196749E0,3.0624652E0,2.4838789E0,4.6204414E0,3.9796205E0,3.0622015E0,3.6359186E0,4.6046953E0,3.36496E0,4.5662494E0,3.67437E0,4.8944955E0,4.87333E0,4.9323215E0,4.8930855E0,5.377608E0,5.2828884E0,5.452629E0,5.631124E0,5.0138564E0,6.619923E0,4.529072E0,3.673453E0,6.3829937E0,6.5043893E0,4.960911E0,4.4770803E0,2.9511468E0,2.6535661E0,2.318086E0,2.4917383E0,4.475327E0,4.349576E0,3.5960522E0,3.7053757E0,4.3747725E0,3.3109217E0,2.177771E0,1.0227473E0,2.165255E0,2.592587E0,4.4462708E-1,1.8364134E0,4.7503834E0,3.907498E0,3.763411E0,3.3219008E0,3.4566827E0,2.8919923E0,2.5464733E0,1.9586234E0,4.659896E0,4.409963E0,4.532151E0,3.847011E0,3.8189325E0,2.8678992E0,3.9616716E0,3.5880113E0,4.7424455E0,4.2602377E0,3.677194E0,2.9533715E0,5.066453E0,4.5103745E0,3.804535E0,3.218714E0,4.8677483E0,4.9057117E0,5.4264607E0,5.317891E0,5.313157E0,5.2750516E0,5.429881E0,5.4933267E0,4.5404787E0,5.250503E0,7.1310506E0,6.2548056E0,4.1716638E0,4.811393E0,3.597413E0,4.2183805E0,6.2342467E0,6.5018835E0,6.5165963E0,6.4921603E0,4.431405E0,4.5227003E0,2.8990881E0,2.9927006E0,2.6663587E0,2.634301E0,2.26395E0,2.4533494E0,2.464525E0,2.6413345E0,4.154614E0,4.5948896E0,3.182453E0,3.932973E0,2.6185532E0,2.1109812E0,2.1903234E0,2.1401124E0,2.626881E0,2.4182465E0,3.2465225E-1,8.8448834E-1,1.9601426E0,1.0940264E0,4.948227E0,4.285442E0,3.5439358E0,4.0982184E0,3.966787E0,3.281729E0,3.3028429E0,4.862129E0,3.8239515E0,3.334258E0,3.49133E0,2.7642639E0,2.69061E0,2.2191088E0,2.0011919E0,1.6747854E0,4.8573093E0,4.631682E0,4.390168E0,4.434582E0,4.3997827E0,5.1939373E0,3.9147542E0,2.898576E0,3.6972172E0,4.0825677E0,3.172148E0,2.3382635E0,4.0174923E0,3.8779004E0,4.097179E0,3.556186E0,4.857022E0,4.642128E0,3.4899282E0,4.1687465E0,3.0816603E0,2.517159E0,5.0328503E0,5.3855915E0,3.8683677E0,4.595459E0,3.6846747E0,3.9642944E0],"categories":[],"categories_nodes":[],"categories_segments":[],"categories_sizes":[],"default_left":[1,1,1,1,1,1,1,1,1,1,1,1,1,1,1,1,0,1,0,1,1,1,1,1,1,1,1,1,1,1,1,1,1,1,1,1,1,1,1,1,1,1,1,1,1,1,1,1,1,1,1,1,1,1,1,1,1,1,1,0,0,0,1,1,1,1,0,1,1,1,1,1,1,0,1,1,1,1,1,0,0,0,0,1,1,1,0,1,1,1,1,1,1,1,1,1,1,1,1,1,1,1,1,1,1,1,1,1,0,1,1,1,1,1,0,0,0,0,0,0,0,0,0,0,0,0,0,0,0,0,0,0,0,0,0,0,0,0,0,0,0,0,0,0,0,0,0,0,0,0,0,0,0,0,0,0,0,0,0,0,0,0,0,0,0,0,0,0,0,0,0,0,0,0,0,0,0,0,0,0,0,0,0,0,0,0,0,0,0,0,0,0,0,0,0,0,0,0,0,0,0,0,0],"id":3,"left_children":[1,3,5,7,9,11,13,15,17,19,21,23,25,27,29,31,-1,33,-1,35,37,39,41,43,45,47,49,51,53,55,57,59,61,63,65,67,69,71,73,75,77,79,81,83,85,87,89,91,93,95,97,99,101,103,105,107,109,111,113,-1,-1,-1,115,117,119,121,-1,123,125,127,129,131,133,-1,135,137,139,141,143,-1,-1,-1,-1,145,147,149,-1,151,153,155,157,159,161,163,165,167,169,171,173,175,177,179,181,183,185,187,189,191,-1,193,195,197,199,201,-1,-1,-1,-1,-1,-1,-1,-1,-1,-1,-1,-1,-1,-1,-1,-1,-1,-1,-1,-1,-1,-1,-1,-1,-1,-1,-1,-1,-1,-1,-1,-1,-1,-1,-1,-1,-1,-1,-1,-1,-1,-1,-1,-1,-1,-1,-1,-1,-1,-1,-1,-1,-1,-1,-1,-1,-1,-1,-1,-1,-1,-1,-1,-1,-1,-1,-1,-1,-1,-1,-1,-1,-1,-1,-1,-1,-1,-1,-1,-1,-1,-1,-1,-1,-1,-1,-1,-1,-1],"loss_changes":[2.2313125E3,2.5533203E2,8.153594E2,2.1132812E1,2.8786914E2,6.305156E2,1.0398242E2,5.3222656E-2,3.0742188E0,1.546211E2,4.747516E1,2.5840674E2,7.145703E2,6.279297E1,1.4154102E2,1.953125E-3,0E0,1.2041016E0,0E0,1.4870312E2,6.0143066E1,1.9126587E0,3.1022034E0,1.4312988E2,1.12556885E2,3.627422E2,1.4371191E2,1.9432617E1,2.1902344E1,2.8377197E1,2.0586914E1,2.4414062E-4,2.4414062E-3,4.2578125E-1,1.7871094E-1,3.0947754E1,8.748535E1,1.0546875E-1,1.0492859E0,4.9572754E-1,4.095459E-1,5.2947998E-2,2.3338318E-2,2.5334229E1,7.602539E0,2.0751953E0,6.9733154E1,1.2100391E2,1.16546875E2,8.547949E1,2.1302734E1,4.6936035E-1,2.0439453E1,1.3671204E1,3.6486816E0,9.923706E-1,1.9659424E1,1.7519531E1,1.5982971E0,0E0,0E0,0E0,1.3122559E-3,4.0283203E-1,1.2451172E-2,1.4208984E-1,0E0,2.0119324E0,6.712158E0,6.447168E1,6.0876465E0,1.531372E-1,1.2207031E-3,0E0,3.3447266E-2,1.6921997E-2,1.4266968E-3,1.5175629E-1,1.565857E-1,0E0,0E0,0E0,0E0,1.1590881E0,2.6608154E1,3.354126E0,0E0,5.722046E-3,1.307251E0,2.2159462E0,2.314618E1,1.8484863E1,7.737891E1,7.5231445E1,7.925195E1,1.7262207E1,6.7976074E1,2.7317871E1,8.321533E-1,2.6306152E-1,4.119873E-4,4.725952E0,1.4453369E1,6.062317E-1,1.1922119E1,1.3677979E-1,3.3024902E0,1.6809082E-1,0E0,8.005127E0,3.690979E0,6.7077637E-1,3.080371E1,3.9874268E-1,0E0,0E0,0E0,0E0,0E0,0E0,0E0,0E0,0E0,0E0,0E0,0E0,0E0,0E0,0E0,0E0,0E0,0E0,0E0,0E0,0E0,0E0,0E0,0E0,0E0,0E0,0E0,0E0,0E0,0E0,0E0,0E0,0E0,0E0,0E0,0E0,0E0,0E0,0E0,0E0,0E0,0E0,0E0,0E0,0E0,0E0,0E0,0E0,0E0,0E0,0E0,0E0,0E0,0E0,0E0,0E0,0E0,0E0,0E0,0E0,0E0,0E0,0E0,0E0,0E0,0E0,0E0,0E0,0E0,0E0,0E0,0E0,0E0,0E0,0E0,0E0,0E0,0E0,0E0,0E0,0E0,0E0,0E0,0E0,0E0,0E0,0E0,0E0,0E0],"parents":[2147483647,0,0,1,1,2,2,3,3,4,4,5,5,6,6,7,7,8,8,9,9,10,10,11,11,12,12,13,13,14,14,15,15,17,17,19,19,20,20,21,21,22,22,23,23,24,24,25,25,26,26,27,27,28,28,29,29,30,30,31,31,32,32,33,33,34,34,35,35,36,36,37,37,38,38,39,39,40,40,41,41,42,42,43,43,44,44,45,45,46,46,47,47,48,48,49,49,50,50,51,51,52,52,53,53,54,54,55,55,56,56,57,57,58,58,62,62,63,63,64,64,65,65,67,67,68,68,69,69,70,70,71,71,72,72,74,74,75,75,76,76,77,77,78,78,83,83,84,84,85,85,87,87,88,88,89,89,90,90,91,91,92,92,93,93,94,94,95,95,96,96,97,97,98,98,99,99,100,100,101,101,102,102,103,103,104,104,105,105,106,106,107,107,109,109,110,110,111,111,112,112,113,113],"right_children":[2,4,6,8,10,12,14,16,18,20,22,24,26,28,30,32,-1,34,-1,36,38,40,42,44,46,48,50,52,54,56,58,60,62,64,66,68,70,72,74,76,78,80,82,84,86,88,90,92,94,96,98,100,102,104,106,108,110,112,114,-1,-1,-1,116,118,120,122,-1,124,126,128,130,132,134,-1,136,138,140,142,144,-1,-1,-1,-1,146,148,150,-1,152,154,156,158,160,162,164,166,168,170,172,174,176,178,180,182,184,186,188,190,192,-1,194,196,198,200,202,-1,-1,-1,-1,-1,-1,-1,-1,-1,-1,-1,-1,-1,-1,-1,-1,-1,-1,-1,-1,-1,-1,-1,-1,-1,-1,-1,-1,-1,-1,-1,-1,-1,-1,-1,-1,-1,-1,-1,-1,-1,-1,-1,-1,-1,-1,-1,-1,-1,-1,-1,-1,-1,-1,-1,-1,-1,-1,-1,-1,-1,-1,-1,-1,-1,-1,-1,-1,-1,-1,-1,-1,-1,-1,-1,-1,-1,-1,-1,-1,-1,-1,-1,-1,-1,-1,-1,-1,-1],"split_conditions":[-1.4182022E-2,-1.8925631E0,-1.6705552E-1,-1.339502E-2,-1.5025293E-2,-3.1763677E-2,2.255866E0,3.1390524E-1,5.252435E-1,4.1248134E-1,-3.147518E-2,-9.061943E-2,2.3011591E-2,-1.5545727E-4,-3.1304047E-2,1.8816164E-1,7.0120275E-1,2.2120371E-1,8.5026246E-1,-8.395184E-1,8.1048E-1,-5.839329E-1,-6.2544805E-1,2.9313762E-2,-1.1573536E-2,3.8209017E-3,6.9729745E-2,-1.2193537E-1,-3.230241E-1,-1.1538126E-1,8.404042E-2,-1.0479267E-1,2.1840033E-1,3.0653023E-3,-2.8608248E-2,-2.3669723E-1,-4.099005E-1,-6.178896E-2,3.2520473E-2,-8.0712265E-1,-3.1956732E-2,1.4280218E-1,2.4052802E-2,-1.1659454E-1,4.4103637E-1,-7.821569E-2,-4.1786736E-1,-1.3389142E0,-3.6128134E-2,-1.4173899E0,-5.839329E-1,-7.3979497E-1,-6.119029E-1,-2.6101077E-1,-8.0712265E-1,-1.9307804E-1,-3.723697E-1,2.1754944E-1,5.1972327E0,6.951203E-1,6.9211435E-1,7.004924E-1,2.495097E-1,-7.573302E-1,1.8558581E-1,3.2281178E-1,7.9973686E-1,-6.2141055E-1,-1.980916E-2,-3.133196E-2,6.1056167E-2,-6.4459044E-1,-6.110141E-1,7.0455265E-1,-3.509252E-1,-5.888113E-1,-7.7419385E-2,-3.230241E-1,-4.8060858E-1,6.355896E-1,6.177304E-1,5.107143E-1,5.2624047E-1,8.1048E-1,1.4930007E0,-2.1007483E-1,1.4525141E-1,-3.509252E-1,8.4005773E-1,-5.839329E-1,5.928684E-1,-9.790775E-3,-5.8469325E-3,-1.860831E-1,-1.4224944E-1,-2.3355415E0,-7.882935E-1,-2.169787E-2,-2.411056E-2,-5.982801E-1,-5.8509266E-1,-6.2544805E-1,1.6097779E0,5.099879E-1,8.1048E-1,8.350733E-2,-6.434609E-2,-4.62469E-1,6.0504246E-1,-6.2544805E-1,5.9153833E0,-6.483095E-2,-4.763484E-2,-2.5619513E-1,4.571244E-1,6.913216E-1,6.967132E-1,7.706704E-1,7.552513E-1,7.5457895E-1,7.4916714E-1,7.711562E-1,7.8016675E-1,6.448425E-1,7.4568075E-1,1.0127577E0,8.8831264E-1,5.9246314E-1,6.8331796E-1,5.1090753E-1,5.9909785E-1,8.8539284E-1,9.2340285E-1,9.2549235E-1,9.220219E-1,6.293518E-1,6.423176E-1,4.117309E-1,4.250258E-1,3.7867844E-1,3.7412557E-1,3.2152805E-1,3.484267E-1,3.5001385E-1,3.751245E-1,5.900417E-1,6.5257E-1,4.5197457E-1,5.5856407E-1,3.7188908E-1,2.998033E-1,3.1107152E-1,3.0394053E-1,3.730718E-1,3.4344137E-1,4.610738E-2,1.2561576E-1,2.7838105E-1,1.5537454E-1,7.027513E-1,6.0862195E-1,5.0331265E-1,5.820323E-1,5.6336635E-1,4.6607384E-1,4.6907246E-1,6.9052356E-1,5.4308075E-1,4.7353408E-1,4.9584153E-1,3.92583E-1,3.8212264E-1,3.1515965E-1,2.8421092E-1,2.3785439E-1,6.8983907E-1,6.5779525E-1,6.234953E-1,6.29803E-1,6.2486076E-1,7.3764724E-1,5.559766E-1,4.1165814E-1,5.250818E-1,5.798096E-1,4.5051107E-1,3.320821E-1,5.7056755E-1,5.5074257E-1,5.8188474E-1,5.0505245E-1,6.8979824E-1,6.592788E-1,4.9564248E-1,5.920488E-1,4.3765992E-1,3.57489E-1,7.1476954E-1,7.648661E-1,5.4938877E-1,6.5265083E-1,5.233005E-1,5.6301236E-1],"split_indices":[59,1,33,58,59,24,11,60,35,37,24,58,59,59,24,60,0,31,0,60,6,3,0,59,59,59,58,5,54,58,60,60,60,60,24,4,60,58,7,21,24,20,60,58,0,58,26,27,58,3,3,5,60,60,21,60,60,12,10,0,0,0,60,20,60,60,0,23,59,24,58,60,60,0,57,60,58,54,60,0,0,0,0,6,20,60,0,57,55,3,20,59,59,8,9,2,29,24,24,60,60,0,6,11,6,57,58,60,0,0,45,58,60,21,0,0,0,0,0,0,0,0,0,0,0,0,0,0,0,0,0,0,0,0,0,0,0,0,0,0,0,0,0,0,0,0,0,0,0,0,0,0,0,0,0,0,0,0,0,0,0,0,0,0,0,0,0,0,0,0,0,0,0,0,0,0,0,0,0,0,0,0,0,0,0,0,0,0,0,0,0,0,0,0,0,0,0,0,0,0,0,0,0],"split_type":[0,0,0,0,0,0,0,0,0,0,0,0,0,0,0,0,0,0,0,0,0,0,0,0,0,0,0,0,0,0,0,0,0,0,0,0,0,0,0,0,0,0,0,0,0,0,0,0,0,0,0,0,0,0,0,0,0,0,0,0,0,0,0,0,0,0,0,0,0,0,0,0,0,0,0,0,0,0,0,0,0,0,0,0,0,0,0,0,0,0,0,0,0,0,0,0,0,0,0,0,0,0,0,0,0,0,0,0,0,0,0,0,0,0,0,0,0,0,0,0,0,0,0,0,0,0,0,0,0,0,0,0,0,0,0,0,0,0,0,0,0,0,0,0,0,0,0,0,0,0,0,0,0,0,0,0,0,0,0,0,0,0,0,0,0,0,0,0,0,0,0,0,0,0,0,0,0,0,0,0,0,0,0,0,0,0,0,0,0,0,0,0,0,0,0,0,0,0,0,0,0,0,0],"sum_hessian":[1.0722E4,1.524E3,9.198E3,4.95E2,1.029E3,7.707E3,1.491E3,1.08E2,3.87E2,9.21E2,1.08E2,1.002E3,6.705E3,6.63E2,8.28E2,6.6E1,4.2E1,3.78E2,9E0,8.4E2,8.1E1,8.4E1,2.4E1,4.77E2,5.25E2,4.785E3,1.92E3,3.36E2,3.27E2,1.74E2,6.54E2,4.2E1,2.4E1,2.13E2,1.65E2,5.4E1,7.86E2,5.7E1,2.4E1,2.4E1,6E1,1.5E1,9E0,3.57E2,1.2E2,2.31E2,2.94E2,1.317E3,3.468E3,1.272E3,6.48E2,5.7E1,2.79E2,9.3E1,2.34E2,2.1E1,1.53E2,6.27E2,2.7E1,1.8E1,2.4E1,6E0,1.8E1,1.4E2,7.3E1,1.59E2,6E0,1.8E1,3.6E1,6.39E2,1.47E2,9E0,4.8E1,6E0,1.8E1,9E0,1.5E1,2.1E1,3.9E1,6E0,9E0,4E0,5E0,2.4E1,3.33E2,1.14E2,6E0,1.2E1,2.19E2,4.2E1,2.52E2,2.01E2,1.116E3,7.68E2,2.7E3,3.84E2,8.88E2,5.79E2,6.9E1,4.8E1,9E0,5.4E1,2.25E2,1.9E1,7.4E1,3E1,2.04E2,1.5E1,6E0,8.7E1,6.6E1,6.3E1,5.64E2,2.1E1,6E0,6E0,1.2E1,7.7E1,6.3E1,1.5E1,5.8E1,1.02E2,5.7E1,6E0,1.2E1,1.5E1,2.1E1,2.82E2,3.57E2,1.29E2,1.8E1,4E0,5E0,2.4E1,2.4E1,9E0,9E0,4E0,5E0,9E0,6E0,1.5E1,6E0,3.3E1,6E0,1.2E1,1.2E1,2.76E2,5.7E1,1.5E1,9.9E1,6E0,6E0,1.83E2,3.6E1,3.3E1,9E0,2.16E2,3.6E1,1.41E2,6E1,3.84E2,7.32E2,5.4E2,2.28E2,2.667E3,3.3E1,9.6E1,2.88E2,1.56E2,7.32E2,4.02E2,1.77E2,6E1,9E0,6E0,4.2E1,5E0,4E0,4.5E1,9E0,2.1E2,1.5E1,1.3E1,6E0,4.7E1,2.7E1,1.8E1,1.2E1,1.2E1,1.92E2,7E0,8E0,6.3E1,2.4E1,5.1E1,1.5E1,5.7E1,6E0,6.6E1,4.98E2,1.2E1,9E0],"tree_param":{"num_deleted":"0","num_feature":"61","num_nodes":"203","size_leaf_vector":"0"}},{"base_weights":[3.0789702E0,4.040524E0,2.9196522E0,4.5468674E0,3.7969472E0,2.807295E0,3.5004277E0,4.211251E0,4.6405263E0,3.9523466E0,2.4717333E0,2.1724753E0,2.9021628E0,3.2472138E0,3.7031815E0,4.1954165E0,4.2361217E0,4.628713E0,5.136626E0,3.7437356E0,4.5754676E0,2.1676571E0,3.535981E0,2.6295815E0,1.7571609E0,3.0795856E0,2.4599917E0,3.5248487E0,2.9959052E0,3.0073402E0,3.8842902E0,4.1890106E0,4.206606E0,4.2298036E0,4.251875E0,4.5860267E0,4.6838145E0,5.749075E0,3.6620693E0,4.2676454E0,5.5844307E0,2.372474E0,2.0857227E0,3.7750366E0,3.1375022E0,2.9020658E0,1.818937E0,2.2053418E0,1.4050173E0,3.4918504E0,2.9434247E0,2.6275315E0,2.1311166E0,3.6238213E0,3.0464723E0,3.0924137E0,2.559312E0,3.95074E0,2.8752608E0,3.9156504E0,3.1525383E0,4.21498E0,4.1814017E0,4.6138763E0,4.5326095E0,4.678242E0,4.83139E0,5.2875075E0,6.1182942E0,4.3602457E0,3.5648997E0,4.432377E0,3.0439038E0,5.5994835E0,5.5693583E0,2.5320308E0,2.2767096E0,1.9888728E0,2.1378613E0,3.8397396E0,3.7318473E0,3.0953717E0,3.190048E0,3.0364282E0,2.503452E0,1.8684827E0,8.774964E-1,2.305235E0,2.1343033E0,3.814822E-1,1.5756048E0,3.941188E0,3.3190277E0,3.0132163E0,2.5884435E0,2.965762E0,2.4812694E0,2.286059E0,1.9480011E0,2.4456847E0,3.6658957E0,2.9795022E0,3.1803868E0,2.8083627E0,3.2131329E0,2.6556008E0,1.6444967E0,4.068925E0,3.6551974E0,3.1434422E0,2.5339322E0,4.3469124E0,3.8677313E0,2.839171E0,3.3091962E0,4.204171E0,4.236516E0,4.6557903E0,4.5626397E0,4.520151E0,4.5494723E0,4.658725E0,4.71316E0,5.0177627E0,5.5571666E0,5.908379E0,6.4330783E0,4.684037E0,4.1983404E0,3.682739E0,3.1631713E0,5.496629E0,4.2388725E0,2.5632114E0,3.4043844E0,2.4873598E0,2.5676768E0,2.287681E0,2.260177E0,1.9424226E0,2.104924E0,2.1145113E0,2.2662115E0,3.7534673E0,2.9656076E0,2.1942055E0,2.6096046E0,2.2466645E0,1.811178E0,2.0184255E0,2.3462024E0,2.0107388E0,2.2755127E0,2.7854487E-1,7.58873E-1,1.6817616E0,9.3865204E-1,4.246803E0,3.6355705E0,3.1834319E0,3.901584E0,3.279837E0,2.9067166E0,3.9539597E0,2.491966E0,3.1758156E0,2.8023846E0,2.573018E0,1.8645535E0,2.3959637E0,1.5386978E0,2.0635045E0,1.4917558E0,2.035054E0,2.958859E0,3.8546455E0,3.4859214E0,3.0435107E0,2.9337597E0,3.1271017E0,3.2336195E0,3.2735214E0,2.6833878E0,3.3314292E0,3.1574607E0,2.3152215E0,2.777154E0,4.2268224E0,4.011463E0,3.3892324E0,2.815709E0,2.6255333E0,1.9537426E0,4.318081E0,4.620728E0,3.3258655E0,3.9428082E0,3.191643E0,2.5571005E0,3.39826E0,3.1309898E0],"categories":[],"categories_nodes":[],"categories_segments":[],"categories_sizes":[],"default_left":[1,1,1,1,1,1,1,1,1,1,1,1,1,1,1,1,1,1,0,1,1,1,1,1,1,1,1,1,1,1,1,0,1,0,0,1,1,1,1,1,1,1,1,1,1,1,1,1,1,1,1,1,1,1,1,1,1,1,1,1,1,1,0,1,1,1,0,1,1,1,1,1,1,0,0,1,1,1,1,0,0,0,0,1,1,1,0,1,1,1,1,1,1,1,1,1,1,1,1,1,1,1,1,1,1,1,0,1,0,1,1,1,1,1,1,0,0,0,0,0,0,0,0,0,0,0,0,0,0,0,0,0,0,0,0,0,0,0,0,0,0,0,0,0,0,0,0,0,0,0,0,0,0,0,0,0,0,0,0,0,0,0,0,0,0,0,0,0,0,0,0,0,0,0,0,0,0,0,0,0,0,0,0,0,0,0,0,0,0,0,0,0,0,0,0,0,0,0,0,0,0],"id":4,"left_children":[1,3,5,7,9,11,13,15,17,19,21,23,25,27,29,31,33,35,-1,37,39,41,43,45,47,49,51,53,55,57,59,-1,61,-1,-1,63,65,67,69,71,73,75,77,79,81,83,85,87,89,91,93,95,97,99,101,103,105,107,109,111,113,115,-1,117,119,121,-1,123,125,127,129,131,133,-1,-1,135,137,139,141,-1,-1,-1,-1,143,145,147,-1,149,151,153,155,157,159,161,163,165,167,169,171,173,175,177,179,181,183,185,-1,187,-1,189,191,193,195,197,199,-1,-1,-1,-1,-1,-1,-1,-1,-1,-1,-1,-1,-1,-1,-1,-1,-1,-1,-1,-1,-1,-1,-1,-1,-1,-1,-1,-1,-1,-1,-1,-1,-1,-1,-1,-1,-1,-1,-1,-1,-1,-1,-1,-1,-1,-1,-1,-1,-1,-1,-1,-1,-1,-1,-1,-1,-1,-1,-1,-1,-1,-1,-1,-1,-1,-1,-1,-1,-1,-1,-1,-1,-1,-1,-1,-1,-1,-1,-1,-1,-1,-1,-1,-1,-1,-1],"loss_changes":[1.6425391E3,1.8795508E2,6.002031E2,1.5555664E1,2.1190527E2,4.6414844E2,7.654297E1,3.881836E-2,2.2646484E0,1.197168E2,3.4947754E1,1.9022021E2,5.260156E2,4.625537E1,1.0434375E2,9.765625E-4,4.272461E-4,8.852539E-1,0E0,1.1299609E2,7.1739746E1,1.4077759E0,2.2831726E0,1.0536182E2,8.28562E1,2.6859766E2,1.0578906E2,1.4910889E1,1.4660889E1,2.1304321E1,1.5074219E1,0E0,1.3427734E-3,0E0,0E0,3.125E-1,1.3085938E-1,4.5960083E0,4.4975586E1,3.567798E1,7.080078E-3,3.6465454E-1,3.012085E-1,3.855896E-2,1.7189026E-2,1.911792E1,5.5961914E0,1.6373291E0,5.1332214E1,9.225195E1,8.911328E1,6.292383E1,1.8383545E1,1.2935303E1,4.815979E-1,9.770264E0,5.547638E0,7.30072E-1,1.3728027E1,1.3016602E1,1.322815E0,3.9672852E-4,0E0,2.9663086E-1,1.1230469E-2,1.0424805E-1,0E0,8.6798096E-1,9.854126E-1,4.2424316E0,2.754834E1,3.2121826E1,3.6362915E0,0E0,0E0,1.216507E-2,7.7819824E-4,1.1148834E-1,1.1502075E-1,0E0,0E0,0E0,0E0,1.3555908E1,2.9524536E0,2.4688416E0,0E0,1.1261597E0,2.3536377E0,1.6311793E0,1.7038452E1,3.0819336E1,6.7771484E1,8.535156E1,7.7856445E1,1.3175781E1,5.0243652E1,2.8828857E1,1.564978E1,1.8944016E0,8.557373E0,1.0284424E-1,4.826355E-2,4.9387207E0,1.314209E0,2.3561401E0,0E0,1.3243103E-1,0E0,6.763855E0,3.5056458E0,4.9328613E-1,2.30625E1,8.923111E-1,2.828369E-1,0E0,0E0,0E0,0E0,0E0,0E0,0E0,0E0,0E0,0E0,0E0,0E0,0E0,0E0,0E0,0E0,0E0,0E0,0E0,0E0,0E0,0E0,0E0,0E0,0E0,0E0,0E0,0E0,0E0,0E0,0E0,0E0,0E0,0E0,0E0,0E0,0E0,0E0,0E0,0E0,0E0,0E0,0E0,0E0,0E0,0E0,0E0,0E0,0E0,0E0,0E0,0E0,0E0,0E0,0E0,0E0,0E0,0E0,0E0,0E0,0E0,0E0,0E0,0E0,0E0,0E0,0E0,0E0,0E0,0E0,0E0,0E0,0E0,0E0,0E0,0E0,0E0,0E0,0E0,0E0,0E0,0E0,0E0,0E0,0E0,0E0],"parents":[2147483647,0,0,1,1,2,2,3,3,4,4,5,5,6,6,7,7,8,8,9,9,10,10,11,11,12,12,13,13,14,14,15,15,16,16,17,17,19,19,20,20,21,21,22,22,23,23,24,24,25,25,26,26,27,27,28,28,29,29,30,30,32,32,35,35,36,36,37,37,38,38,39,39,40,40,41,41,42,42,43,43,44,44,45,45,46,46,47,47,48,48,49,49,50,50,51,51,52,52,53,53,54,54,55,55,56,56,57,57,58,58,59,59,60,60,61,61,63,63,64,64,65,65,67,67,68,68,69,69,70,70,71,71,72,72,75,75,76,76,77,77,78,78,83,83,84,84,85,85,87,87,88,88,89,89,90,90,91,91,92,92,93,93,94,94,95,95,96,96,97,97,98,98,99,99,100,100,101,101,102,102,103,103,104,104,105,105,107,107,109,109,110,110,111,111,112,112,113,113,114,114],"right_children":[2,4,6,8,10,12,14,16,18,20,22,24,26,28,30,32,34,36,-1,38,40,42,44,46,48,50,52,54,56,58,60,-1,62,-1,-1,64,66,68,70,72,74,76,78,80,82,84,86,88,90,92,94,96,98,100,102,104,106,108,110,112,114,116,-1,118,120,122,-1,124,126,128,130,132,134,-1,-1,136,138,140,142,-1,-1,-1,-1,144,146,148,-1,150,152,154,156,158,160,162,164,166,168,170,172,174,176,178,180,182,184,186,-1,188,-1,190,192,194,196,198,200,-1,-1,-1,-1,-1,-1,-1,-1,-1,-1,-1,-1,-1,-1,-1,-1,-1,-1,-1,-1,-1,-1,-1,-1,-1,-1,-1,-1,-1,-1,-1,-1,-1,-1,-1,-1,-1,-1,-1,-1,-1,-1,-1,-1,-1,-1,-1,-1,-1,-1,-1,-1,-1,-1,-1,-1,-1,-1,-1,-1,-1,-1,-1,-1,-1,-1,-1,-1,-1,-1,-1,-1,-1,-1,-1,-1,-1,-1,-1,-1,-1,-1,-1,-1,-1,-1],"split_conditions":[-1.4182022E-2,-1.8925631E0,-1.6705552E-1,-1.339502E-2,-1.5025293E-2,-3.1763677E-2,2.255866E0,3.1390524E-1,5.252435E-1,-3.9762765E-2,-3.147518E-2,-9.061943E-2,2.3011591E-2,-7.2387717E-4,-3.1475373E-2,1.8816164E-1,5.7058036E-1,2.2120371E-1,7.295078E-1,-3.2077067E-2,4.1248134E-1,-5.839329E-1,-6.2544805E-1,2.9313762E-2,-1.1573536E-2,2.4235998E-3,6.9729745E-2,1.3965874E0,-3.1565754E-3,-1.1538126E-1,8.404042E-2,5.949267E-1,2.81254E-1,6.0072017E-1,6.038548E-1,3.0653023E-3,-2.8608248E-2,-1.056777E-1,-1.2073964E0,-2.9882766E-2,-6.110141E-1,-8.0712265E-1,-3.1956732E-2,1.4280218E-1,7.718365E-2,1.0881973E-2,4.4103637E-1,-1.3989403E-2,-4.1786736E-1,-9.355696E-1,1.1199359E-2,-1.4173899E0,-5.169739E-1,-9.538481E-2,4.9592426E-1,-2.8892266E-2,5.099879E-1,-1.9307804E-1,-3.723697E-1,2.1754944E-1,-3.092879E-2,2.495097E-1,5.938461E-1,-7.573302E-1,3.7906262E-1,3.2281178E-1,6.8615794E-1,-1.06395215E-1,1.7236113E1,-1.1095308E0,-6.0233403E-2,-1.8209059E-2,-5.169739E-1,7.9524326E-1,7.9096484E-1,-5.888113E-1,-7.7419385E-2,-3.230241E-1,-4.8060858E-1,5.4532295E-1,5.3000003E-1,4.3960723E-1,4.5305324E-1,-1.1659454E-1,-5.6860375E-1,-2.1007483E-1,1.2462276E-1,-1.4172974E-2,2.2120371E-1,-5.839329E-1,5.928684E-1,-5.159336E-3,2.4812734E-1,9.429298E-3,-2.3355415E0,-5.169739E-1,1.351943E0,-1.5813136E-2,1.2677495E-1,-3.973842E-1,-3.0788347E-1,-4.4090104E-1,1.3435718E0,-4.814793E-1,8.376142E-4,-5.169739E-1,2.3355277E-1,-4.8989606E-1,5.1911414E-1,-3.07264E-1,-9.3263075E-2,-6.483095E-2,-4.763484E-2,1.887421E-1,5.77651E-3,5.970799E-1,6.016735E-1,6.612192E-1,6.4798987E-1,6.4195555E-1,6.461198E-1,6.6163594E-1,6.6936684E-1,7.1262676E-1,7.892334E-1,8.391129E-1,9.136311E-1,6.652308E-1,5.962517E-1,5.2302563E-1,4.4923618E-1,7.806358E-1,6.0200816E-1,3.640294E-1,4.8349348E-1,3.5325688E-1,3.6466357E-1,3.2489836E-1,3.2099217E-1,2.7586445E-1,2.9894304E-1,3.0030462E-1,3.2184923E-1,5.330705E-1,4.2117804E-1,3.1162286E-1,3.706182E-1,3.1907314E-1,2.5722498E-1,2.8665844E-1,3.3320957E-1,2.8556678E-1,3.2317019E-1,3.955917E-2,1.0777576E-1,2.3884517E-1,1.3330813E-1,6.0313445E-1,5.163267E-1,4.521136E-1,5.541062E-1,4.6580514E-1,4.128143E-1,5.615446E-1,3.5391107E-1,4.5103192E-1,3.9799696E-1,3.6542213E-1,2.648054E-1,3.4027672E-1,2.1852714E-1,2.930606E-1,2.1186039E-1,2.8902003E-1,4.2021957E-1,5.4743993E-1,4.950734E-1,4.322419E-1,4.1665497E-1,4.4411355E-1,4.592413E-1,4.649082E-1,3.8109693E-1,4.731323E-1,4.4842517E-1,3.2880968E-1,3.9441368E-1,6.002968E-1,5.6971127E-1,4.8134157E-1,3.9988932E-1,3.728804E-1,2.7747214E-1,6.132574E-1,6.5623957E-1,4.7234216E-1,5.5996084E-1,4.5327976E-1,3.631615E-1,4.826237E-1,4.4466573E-1],"split_indices":[59,1,33,58,59,24,11,60,35,22,24,58,59,59,24,60,60,31,0,24,37,3,0,59,59,59,58,21,60,58,60,0,60,0,0,60,24,58,20,24,60,21,24,20,60,59,0,59,26,27,58,3,2,58,5,24,11,60,60,12,24,60,0,20,60,60,0,58,50,55,58,59,2,0,0,60,58,54,60,0,0,0,0,58,60,60,0,59,31,3,20,59,34,59,2,2,60,24,58,60,60,60,23,60,59,2,0,60,0,20,58,58,60,60,59,0,0,0,0,0,0,0,0,0,0,0,0,0,0,0,0,0,0,0,0,0,0,0,0,0,0,0,0,0,0,0,0,0,0,0,0,0,0,0,0,0,0,0,0,0,0,0,0,0,0,0,0,0,0,0,0,0,0,0,0,0,0,0,0,0,0,0,0,0,0,0,0,0,0,0,0,0,0,0,0,0,0,0,0,0,0],"split_type":[0,0,0,0,0,0,0,0,0,0,0,0,0,0,0,0,0,0,0,0,0,0,0,0,0,0,0,0,0,0,0,0,0,0,0,0,0,0,0,0,0,0,0,0,0,0,0,0,0,0,0,0,0,0,0,0,0,0,0,0,0,0,0,0,0,0,0,0,0,0,0,0,0,0,0,0,0,0,0,0,0,0,0,0,0,0,0,0,0,0,0,0,0,0,0,0,0,0,0,0,0,0,0,0,0,0,0,0,0,0,0,0,0,0,0,0,0,0,0,0,0,0,0,0,0,0,0,0,0,0,0,0,0,0,0,0,0,0,0,0,0,0,0,0,0,0,0,0,0,0,0,0,0,0,0,0,0,0,0,0,0,0,0,0,0,0,0,0,0,0,0,0,0,0,0,0,0,0,0,0,0,0,0,0,0,0,0,0,0,0,0,0,0,0,0,0,0,0,0,0,0],"sum_hessian":[1.0722E4,1.524E3,9.198E3,4.95E2,1.029E3,7.707E3,1.491E3,1.08E2,3.87E2,9.21E2,1.08E2,1.002E3,6.705E3,6.63E2,8.28E2,6.6E1,4.2E1,3.78E2,9E0,6.9E2,2.31E2,8.4E1,2.4E1,4.77E2,5.25E2,4.785E3,1.92E3,3.15E2,3.48E2,1.71E2,6.57E2,4.2E1,2.4E1,3E1,1.2E1,2.13E2,1.65E2,2.7E1,6.63E2,1.77E2,5.4E1,2.4E1,6E1,1.5E1,9E0,3.57E2,1.2E2,2.31E2,2.94E2,1.188E3,3.597E3,1.272E3,6.48E2,2.61E2,5.4E1,2.85E2,6.3E1,2.1E1,1.5E2,6.3E2,2.7E1,1.8E1,6E0,1.4E2,7.3E1,1.59E2,6E0,1.2E1,1.5E1,8.1E1,5.82E2,1.56E2,2.1E1,2.7E1,2.7E1,9E0,1.5E1,2.1E1,3.9E1,6E0,9E0,5E0,4E0,2.67E2,9E1,1.14E2,6E0,9.6E1,1.35E2,4.2E1,2.52E2,3.3E2,8.58E2,3.006E3,5.91E2,3.84E2,8.88E2,3.51E2,2.97E2,9E0,2.52E2,3.6E1,1.8E1,8.5E1,2E2,5.7E1,6E0,1.5E1,6E0,8.4E1,6.6E1,6.3E1,5.67E2,9E0,1.8E1,1.2E1,6E0,7.7E1,6.3E1,4.2E1,3.1E1,1.02E2,5.7E1,6E0,6E0,9E0,6E0,2.7E1,5.4E1,4.5E2,1.32E2,2.4E1,1.32E2,9E0,1.2E1,4E0,5E0,9E0,6E0,1.5E1,6E0,3.3E1,6E0,2.4E1,2.43E2,2.3E1,6.7E1,1.5E1,9.9E1,1.2E1,8.4E1,7.2E1,6.3E1,3.3E1,9E0,2.16E2,3.6E1,1.65E2,1.65E2,6.96E2,1.62E2,8.58E2,2.148E3,3.9E1,5.52E2,1.68E2,2.16E2,7.73E2,1.15E2,3.06E2,4.5E1,2.37E2,6E1,5E0,4E0,1.23E2,1.29E2,1.5E1,2.1E1,9E0,9E0,1.8E1,6.7E1,6.4E1,1.36E2,1.5E1,4.2E1,4E0,1.1E1,4.8E1,3.6E1,5.7E1,9E0,5.7E1,6E0,6.9E1,4.98E2,4E0,5E0,1.2E1,6E0],"tree_param":{"num_deleted":"0","num_feature":"61","num_nodes":"201","size_leaf_vector":"0"}},{"base_weights":[2.641693E0,3.4666872E0,2.505001E0,3.0072744E0,3.6665444E0,2.4086008E0,3.0032954E0,1.7644181E0,3.2715025E0,3.8112137E0,2.8449292E0,1.8639395E0,2.4899955E0,2.7860434E0,3.1772537E0,1.868332E0,4.6542585E-1,4.494195E0,3.0695887E0,3.7269332E0,4.783942E0,3.7194178E0,2.7118514E0,1.5237514E0,2.281236E0,2.6565402E0,2.1402745E0,3.0242484E0,2.5704255E0,2.5802376E0,3.332641E0,2.0355415E0,1.7896365E0,3.7787645E0,4.851897E0,3.1058376E0,1.7887443E0,3.5039654E0,3.9790573E0,4.8142543E0,4.7536163E0,4.6228876E0,3.5068073E0,2.6210701E0,3.0850453E0,1.909668E0,1.2699491E0,2.6336555E0,1.8326995E0,2.9380026E0,2.4608085E0,2.0840812E0,3.0048795E0,3.4526975E0,2.9356017E0,2.6532273E0,2.1958385E0,3.38966E0,2.4669154E0,3.6741674E0,3.2805123E0,2.172438E0,1.9533741E0,1.8111708E0,1.7379249E0,3.3726153E0,3.9817994E0,5.434921E0,4.657536E0,3.1503303E0,2.6786919E0,1.667563E0,1.9401107E0,3.125377E0,3.5853136E0,3.9689443E0,4.4071193E0,4.8509955E0,4.795862E0,4.679227E0,4.778394E0,3.649383E0,3.3463502E0,2.4777975E0,2.69867E0,3.222875E0,2.9747503E0,1.9388417E0,1.7613561E0,1.7689401E0,1.0765883E0,2.761041E0,2.1978548E0,2.1243165E0,1.5582323E0,3.4511676E0,2.865367E0,3.0746264E0,2.4387336E0,2.564927E0,2.0150406E0,3.423415E0,1.581844E0,3.2594879E0,3.476839E0,3.3356476E0,2.8263187E0,2.3654447E0,2.741672E0,2.2784514E0,1.4109448E0,3.4910583E0,3.1360853E0,2.6970088E0,2.1740623E0,3.740916E0,3.353742E0,2.4933991E0,3.3479784E0,2.1341047E0,2.2030146E0,1.9627837E0,1.9391859E0,1.8248823E0,1.7837112E0,1.7112505E0,1.7556591E0,4.145611E0,3.8179064E0,4.8694963E0,4.4879346E0,3.086969E0,3.695221E0,2.4380465E0,2.9193068E0,3.22918E0,2.9292867E0,3.5589857E0,4.1960874E0,3.9309983E0,4.018616E0,4.883266E0,4.8347974E0,2.04656E0,2.5561907E0,3.002023E0,2.6710854E0,3.3152997E0,3.0933864E0,2.9019265E0,3.0232477E0,2.0336473E0,1.8773422E0,1.6193476E0,1.9601387E0,2.2114825E0,1.4493179E0,2.3898572E-1,1.2101172E0,2.675702E0,3.1023846E0,2.9133565E0,1.402836E0,1.8538573E0,2.2247663E0,1.5314606E0,1.9865052E0,3.3623729E0,4.1220436E0,4.84451E0,2.8507063E0,3.0251002E0,3.4088895E0,2.4320126E0,4.3631167E0,3.4661443E0,2.3718069E0,2.1429055E0,1.6638162E0,3.5384908E0,3.049399E0,1.0025039E0,1.8301122E0,3.5090077E0,3.3802934E0,2.7493548E0,3.4479065E0,2.9463117E0,2.4115498E0,2.7216341E0,2.1534164E0,3.0668705E0,2.722726E0,2.5763047E0,2.1622047E0,3.5800385E0,3.413141E0,2.482955E0,3.0278053E0,2.4327393E0,1.9949665E0,4.0656915E0,3.694512E0,3.5532389E0,3.0544176E0,3.1813538E0,1.461442E0,2.6123865E0,3.384757E0],"categories":[],"categories_nodes":[],"categories_segments":[],"categories_sizes":[],"default_left":[1,1,1,1,1,1,1,1,1,1,1,1,1,1,1,1,0,1,1,1,1,1,1,1,1,1,1,1,1,1,1,1,1,1,1,1,1,1,1,1,1,0,1,1,1,1,1,1,1,1,1,1,1,1,1,1,1,1,1,1,1,1,1,1,1,0,1,0,1,1,1,0,0,1,1,1,0,1,0,0,0,0,0,1,1,1,1,1,1,1,1,1,1,1,1,1,1,1,1,1,1,1,1,0,1,1,1,1,1,1,0,1,0,1,1,1,1,1,1,0,0,0,0,0,0,0,0,0,0,0,0,0,0,0,0,0,0,0,0,0,0,0,0,0,0,0,0,0,0,0,0,0,0,0,0,0,0,0,0,0,0,0,0,0,0,0,0,0,0,0,0,0,0,0,0,0,0,0,0,0,0,0,0,0,0,0,0,0,0,0,0,0,0,0,0,0,0,0,0,0,0,0,0,0,0,0,0,0,0],"id":5,"left_children":[1,3,5,7,9,11,13,15,17,19,21,23,25,27,29,31,-1,33,35,37,39,41,43,45,47,49,51,53,55,57,59,61,63,65,67,69,71,73,75,77,79,-1,81,83,85,87,89,91,93,95,97,99,101,103,105,107,109,111,113,115,117,119,121,123,125,-1,127,-1,129,131,133,-1,-1,135,137,139,-1,141,-1,-1,-1,-1,-1,143,145,147,149,151,153,155,157,159,161,163,165,167,169,171,173,175,177,179,181,-1,183,185,187,189,191,193,-1,195,-1,197,199,201,203,205,207,-1,-1,-1,-1,-1,-1,-1,-1,-1,-1,-1,-1,-1,-1,-1,-1,-1,-1,-1,-1,-1,-1,-1,-1,-1,-1,-1,-1,-1,-1,-1,-1,-1,-1,-1,-1,-1,-1,-1,-1,-1,-1,-1,-1,-1,-1,-1,-1,-1,-1,-1,-1,-1,-1,-1,-1,-1,-1,-1,-1,-1,-1,-1,-1,-1,-1,-1,-1,-1,-1,-1,-1,-1,-1,-1,-1,-1,-1,-1,-1,-1,-1,-1,-1,-1,-1,-1,-1,-1,-1],"loss_changes":[1.2091172E3,1.3992773E2,4.4182812E2,1.5171729E2,1.26228516E2,3.4166797E2,5.6347656E1,1.0932709E1,9.405762E1,7.402637E1,1.8500854E1,1.4224194E2,3.9052734E2,3.4050293E1,7.681055E1,9.8526E-1,0E0,1.3815308E1,1.5180176E1,4.6710938E1,6.1767578E-2,4.0302124E0,4.6728516E0,5.4065063E1,7.113086E1,2.5022266E2,1.05086914E2,1.19609375E1,1.0791748E1,1.5682373E1,1.1692871E1,2.68219E-1,5.531311E-2,1.4810486E0,4.07489E0,6.04126E0,1.6356659E-1,1.3578613E1,1.6845703E0,2.0019531E-2,6.213379E-2,0E0,3.8583374E-1,1.2318115E0,4.0774536E-1,9.460449E-1,3.212848E1,1.3987549E1,1.5846252E1,6.943848E1,3.629883E1,6.742285E1,7.8615845E1,2.4890137E-1,1.1407959E1,7.251831E0,4.0835266E0,5.3704834E-1,1.0105469E1,1.857666E0,3.0266602E1,8.708954E-3,3.5095215E-4,1.2046814E-2,5.6419373E-3,0E0,3.186493E-1,0E0,9.663086E-1,9.940186E0,1.7347717E0,0E0,0E0,1.5849609E0,5.833496E0,7.1484375E-1,0E0,1.8615723E-3,0E0,0E0,0E0,0E0,0E0,1.3164825E0,6.000366E-1,1.4082336E-1,5.039978E-2,1.0653076E0,1.0147324E0,1.3152954E1,2.684198E1,5.6778564E0,3.2421936E1,2.6063538E0,1.1680145E0,1.3757568E1,4.734961E1,1.5367432E0,3.3442383E1,4.437854E1,7.9757324E1,4.387207E0,4.3137894E0,0E0,1.4605713E-1,3.6830444E0,1.0200439E1,5.0579224E0,1.3405762E0,1.9716187E0,0E0,1.0092163E-1,0E0,5.9454956E0,3.0557861E0,1.081665E0,8.928375E-1,3.1945374E1,1.4200195E1,0E0,0E0,0E0,0E0,0E0,0E0,0E0,0E0,0E0,0E0,0E0,0E0,0E0,0E0,0E0,0E0,0E0,0E0,0E0,0E0,0E0,0E0,0E0,0E0,0E0,0E0,0E0,0E0,0E0,0E0,0E0,0E0,0E0,0E0,0E0,0E0,0E0,0E0,0E0,0E0,0E0,0E0,0E0,0E0,0E0,0E0,0E0,0E0,0E0,0E0,0E0,0E0,0E0,0E0,0E0,0E0,0E0,0E0,0E0,0E0,0E0,0E0,0E0,0E0,0E0,0E0,0E0,0E0,0E0,0E0,0E0,0E0,0E0,0E0,0E0,0E0,0E0,0E0,0E0,0E0,0E0,0E0,0E0,0E0,0E0,0E0,0E0,0E0,0E0,0E0],"parents":[2147483647,0,0,1,1,2,2,3,3,4,4,5,5,6,6,7,7,8,8,9,9,10,10,11,11,12,12,13,13,14,14,15,15,17,17,18,18,19,19,20,20,21,21,22,22,23,23,24,24,25,25,26,26,27,27,28,28,29,29,30,30,31,31,32,32,33,33,34,34,35,35,36,36,37,37,38,38,39,39,40,40,42,42,43,43,44,44,45,45,46,46,47,47,48,48,49,49,50,50,51,51,52,52,53,53,54,54,55,55,56,56,57,57,58,58,59,59,60,60,61,61,62,62,63,63,64,64,66,66,68,68,69,69,70,70,73,73,74,74,75,75,77,77,83,83,84,84,85,85,86,86,87,87,88,88,89,89,90,90,91,91,92,92,93,93,94,94,95,95,96,96,97,97,98,98,99,99,100,100,101,101,102,102,104,104,105,105,106,106,107,107,108,108,109,109,111,111,113,113,114,114,115,115,116,116,117,117,118,118],"right_children":[2,4,6,8,10,12,14,16,18,20,22,24,26,28,30,32,-1,34,36,38,40,42,44,46,48,50,52,54,56,58,60,62,64,66,68,70,72,74,76,78,80,-1,82,84,86,88,90,92,94,96,98,100,102,104,106,108,110,112,114,116,118,120,122,124,126,-1,128,-1,130,132,134,-1,-1,136,138,140,-1,142,-1,-1,-1,-1,-1,144,146,148,150,152,154,156,158,160,162,164,166,168,170,172,174,176,178,180,182,-1,184,186,188,190,192,194,-1,196,-1,198,200,202,204,206,208,-1,-1,-1,-1,-1,-1,-1,-1,-1,-1,-1,-1,-1,-1,-1,-1,-1,-1,-1,-1,-1,-1,-1,-1,-1,-1,-1,-1,-1,-1,-1,-1,-1,-1,-1,-1,-1,-1,-1,-1,-1,-1,-1,-1,-1,-1,-1,-1,-1,-1,-1,-1,-1,-1,-1,-1,-1,-1,-1,-1,-1,-1,-1,-1,-1,-1,-1,-1,-1,-1,-1,-1,-1,-1,-1,-1,-1,-1,-1,-1,-1,-1,-1,-1,-1,-1,-1,-1,-1,-1],"split_conditions":[-1.4182022E-2,-3.1323634E-2,-1.6705552E-1,2.4952404E-1,-6.2544805E-1,-3.1763677E-2,2.255866E0,-5.361986E-1,-9.7987935E-2,1.4930007E0,-4.099005E-1,-8.241666E-1,1.3312704E-2,-7.2387717E-4,-3.1475373E-2,-5.839329E-1,6.610016E-2,-2.3669723E-1,1.3999109E0,-1.339502E-2,-6.110141E-1,-7.373744E-1,1.3965874E0,-1.3644075E-2,1.9142251E-2,9.429298E-3,2.4812734E-1,-7.882935E-1,-3.1565754E-3,-1.1538126E-1,-3.8815114E-1,-8.0712265E-1,2.9473233E-1,-6.2141055E-1,-2.024769E-2,-3.1569444E-2,-1.884343E-1,-8.0712265E-1,5.252435E-1,-6.178896E-2,4.1248134E-1,6.565463E-1,-5.169739E-1,-1.6080596E-2,5.928684E-1,8.4005773E-1,-8.717933E-2,2.009427E0,8.1048E-1,-1.3389142E0,-1.4173899E0,-2.3355415E0,4.4103637E-1,-3.755687E-1,-6.119029E-1,-2.891346E-2,5.099879E-1,-1.9307804E-1,-3.723697E-1,5.1972327E0,-4.763484E-2,-5.888113E-1,-7.7419385E-2,8.350733E-2,8.350733E-2,4.789816E-1,2.3898702E0,7.718719E-1,-1.909162E-2,-6.1656475E-1,-3.149105E-2,2.3682866E-1,2.7553612E-1,-1.3016497E-1,7.941814E0,2.2120371E-1,6.259027E-1,-6.4459044E-1,6.811123E-1,6.645476E-1,6.786315E-1,5.182884E-1,4.752514E-1,-7.3979497E-1,-1.4241749E-2,7.194131E-2,1.3435718E0,-1.39807E-2,-6.2161706E-2,-3.7380771E-3,-8.30503E-2,-2.523953E-3,-8.0712265E-1,-5.6860375E-1,1.3965874E0,5.482918E0,-1.8925631E0,4.4103637E-1,-1.4224944E-1,3.4452245E-2,7.050161E-2,1.814852E0,2.0738258E0,4.6291515E-1,-5.6142304E-2,-1.358279E0,-3.9762765E-2,-2.6101077E-1,-6.434609E-2,-2.7984343E-2,2.0038354E-1,-4.62469E-1,4.4538942E-1,-6.8598916E-3,2.3898702E0,-8.201264E-2,-3.230241E-1,-1.14842005E-1,-3.0249484E-2,3.030873E-1,3.1287396E-1,2.7875614E-1,2.7540478E-1,2.5917128E-1,2.5332412E-1,2.4303322E-1,2.4934015E-1,5.8876306E-1,5.422222E-1,6.9156986E-1,6.373802E-1,4.3841386E-1,5.2479833E-1,3.4625337E-1,4.1460234E-1,4.586108E-1,4.160197E-1,5.0545007E-1,5.9593177E-1,5.582836E-1,5.7072717E-1,6.9352543E-1,6.866419E-1,2.9065415E-1,3.630323E-1,4.2634976E-1,3.7934974E-1,4.708416E-1,4.3932527E-1,4.12134E-1,4.2936411E-1,2.8882027E-1,2.6662168E-1,2.2998108E-1,2.783805E-1,3.1407657E-1,2.0583333E-1,3.394095E-2,1.7186184E-1,3.8000542E-1,4.406032E-1,4.137573E-1,1.9923192E-1,2.6328632E-1,3.1596312E-1,2.174993E-1,2.821251E-1,4.7752696E-1,5.85416E-1,6.880213E-1,4.0485966E-1,4.296272E-1,4.841333E-1,3.4539643E-1,6.196534E-1,4.9226466E-1,3.3684596E-1,3.043372E-1,2.3629655E-1,5.025394E-1,4.3307814E-1,1.4237642E-1,2.5991404E-1,4.9835217E-1,4.8007205E-1,3.9046565E-1,4.896745E-1,4.184376E-1,3.424903E-1,3.8652873E-1,3.0582997E-1,4.3555945E-1,3.866838E-1,3.658889E-1,3.070781E-1,5.0844E-1,4.847371E-1,3.526313E-1,4.300114E-1,3.4549963E-1,2.8332677E-1,5.7741284E-1,5.246976E-1,5.046339E-1,4.337909E-1,4.518185E-1,2.0755519E-1,3.7101328E-1,4.8070598E-1],"split_indices":[59,24,33,3,0,24,11,28,58,20,60,4,58,59,24,3,0,4,7,58,60,60,21,59,59,59,34,29,60,58,60,21,21,23,59,24,60,21,35,58,37,0,2,59,20,55,58,6,6,27,3,2,0,3,60,24,11,60,60,10,60,60,58,57,57,0,40,0,59,60,24,0,0,23,46,31,0,60,0,0,0,0,0,5,58,60,23,59,58,59,58,59,21,60,21,38,1,0,9,59,59,55,60,0,60,23,22,60,58,24,0,60,0,59,40,58,54,60,24,0,0,0,0,0,0,0,0,0,0,0,0,0,0,0,0,0,0,0,0,0,0,0,0,0,0,0,0,0,0,0,0,0,0,0,0,0,0,0,0,0,0,0,0,0,0,0,0,0,0,0,0,0,0,0,0,0,0,0,0,0,0,0,0,0,0,0,0,0,0,0,0,0,0,0,0,0,0,0,0,0,0,0,0,0,0,0,0,0,0],"split_type":[0,0,0,0,0,0,0,0,0,0,0,0,0,0,0,0,0,0,0,0,0,0,0,0,0,0,0,0,0,0,0,0,0,0,0,0,0,0,0,0,0,0,0,0,0,0,0,0,0,0,0,0,0,0,0,0,0,0,0,0,0,0,0,0,0,0,0,0,0,0,0,0,0,0,0,0,0,0,0,0,0,0,0,0,0,0,0,0,0,0,0,0,0,0,0,0,0,0,0,0,0,0,0,0,0,0,0,0,0,0,0,0,0,0,0,0,0,0,0,0,0,0,0,0,0,0,0,0,0,0,0,0,0,0,0,0,0,0,0,0,0,0,0,0,0,0,0,0,0,0,0,0,0,0,0,0,0,0,0,0,0,0,0,0,0,0,0,0,0,0,0,0,0,0,0,0,0,0,0,0,0,0,0,0,0,0,0,0,0,0,0,0,0,0,0,0,0,0,0,0,0,0,0,0,0,0,0,0,0],"sum_hessian":[1.0722E4,1.524E3,9.198E3,4.62E2,1.062E3,7.707E3,1.491E3,8.1E1,3.81E2,9.03E2,1.59E2,1.002E3,6.705E3,6.63E2,8.28E2,7.5E1,6E0,5.4E1,3.27E2,8.31E2,7.2E1,2.1E1,1.38E2,5.52E2,4.5E2,4.542E3,2.163E3,3.15E2,3.48E2,1.71E2,6.57E2,2.4E1,5.1E1,1.8E1,3.6E1,3.18E2,9E0,4.41E2,3.9E2,3.6E1,3.6E1,4E0,1.7E1,1.11E2,2.7E1,2.19E2,3.33E2,2.52E2,1.98E2,1.863E3,2.679E3,2.031E3,1.32E2,5.4E1,2.61E2,2.85E2,6.3E1,2.1E1,1.5E2,8.7E1,5.7E2,9E0,1.5E1,3.6E1,1.5E1,6E0,1.2E1,9E0,2.7E1,2.88E2,3E1,5E0,4E0,7.8E1,3.63E2,3.81E2,9E0,1.2E1,2.4E1,9E0,2.7E1,9E0,8E0,3.9E1,7.2E1,1.2E1,1.5E1,1.83E2,3.6E1,9.3E1,2.4E2,1.95E2,5.7E1,9.6E1,1.02E2,2.31E2,1.632E3,9.3E1,2.586E3,2.55E2,1.776E3,1.02E2,3E1,6E0,4.8E1,5.6E1,2.05E2,6.7E1,2.18E2,5.7E1,6E0,1.5E1,6E0,8.4E1,6.6E1,7.2E1,1.5E1,4.5E1,5.25E2,4E0,5E0,9E0,6E0,2.4E1,1.2E1,6E0,9E0,6E0,6E0,1.2E1,1.5E1,2.58E2,3E1,1.5E1,1.5E1,5.1E1,2.7E1,3.48E2,1.5E1,2.16E2,1.65E2,4E0,8E0,6E0,3.3E1,6E0,6.6E1,7E0,5E0,6E0,9E0,7.2E1,1.11E2,2.1E1,1.5E1,3.9E1,5.4E1,3.3E1,2.07E2,1.56E2,3.9E1,3E1,2.7E1,2.6E1,7E1,9.6E1,6E0,2.04E2,2.7E1,1.2E1,1.62E3,8.1E1,1.2E1,2.577E3,9E0,4.5E1,2.1E2,1.302E3,4.74E2,7.8E1,2.4E1,9E0,2.1E1,3.6E1,1.2E1,9E0,4.7E1,1.59E2,4.6E1,2.5E1,4.2E1,1.2E1,2.06E2,1.6E1,4.1E1,7E0,8E0,5.1E1,3.3E1,2.7E1,3.9E1,9E0,6.3E1,9E0,6E0,2.7E1,1.8E1,2.5E1,5E2],"tree_param":{"num_deleted":"0","num_feature":"61","num_nodes":"209","size_leaf_vector":"0"}},{"base_weights":[2.266518E0,2.9743474E0,2.1492393E0,2.5801816E0,3.14582E0,2.0837555E0,2.6903214E0,1.5138403E0,2.8068829E0,3.2699428E0,2.4408941E0,2.1894863E0,1.7769696E0,2.183763E0,2.8544457E0,1.602996E0,3.99326E-1,3.8559325E0,2.6336439E0,3.1976316E0,4.104527E0,3.1911902E0,2.3267152E0,1.6483674E0,2.278382E0,2.180149E0,1.7035403E0,2.461676E0,1.7795218E0,3.1559951E0,2.7900362E0,1.7464606E0,1.5354747E0,3.2421095E0,4.162831E0,2.6647444E0,1.534713E0,3.0063295E0,3.4139485E0,4.130534E0,4.0785065E0,3.8052962E0,2.9455159E0,2.2488253E0,2.6469123E0,2.1527612E0,1.2961862E0,2.5289226E0,2.1509483E0,2.4586227E0,1.9911308E0,1.8589447E0,1.5703595E0,2.9952607E0,2.3996277E0,1.2167048E0,1.931044E0,4.604717E0,3.0870044E0,2.014611E0,2.842266E0,1.8639143E0,1.675959E0,1.5539488E0,1.491108E0,2.8936357E0,3.4163077E0,4.5096254E0,3.9150968E0,2.546263E0,2.7925155E0,1.4307355E0,1.6645762E0,2.681509E0,3.0761244E0,3.4052718E0,3.7812183E0,4.1620607E0,4.1147504E0,4.014681E0,4.0997634E0,3.1310697E0,2.8217616E0,2.1259005E0,2.3154035E0,2.765166E0,2.552279E0,2.0128167E0,2.5288568E0,1.6260875E0,1.0200716E0,3.1564662E0,2.480738E0,2.420627E0,2.0774531E0,2.244998E0,2.5065343E0,2.2821844E0,1.9051791E0,1.9679004E0,1.6072024E0,1.6968191E0,1.3901135E0,3.118091E0,2.9505525E0,2.1459792E0,2.4868145E0,1.4185227E0,1.0653056E0,2.2551827E0,1.7594323E0,3.198154E0,2.0310473E0,2.6666389E0,1.2538872E0,2.1222355E0,2.8914187E0,1.8369416E0,1.8975196E0,1.6840281E0,1.6637821E0,1.5657113E0,1.5303876E0,1.5099549E0,1.4627655E0,3.55685E0,3.2756863E0,4.3509326E0,4.7475815E0,3.6677604E0,4.013999E0,3.205109E0,2.4945858E0,2.6775105E0,3.1405447E0,2.7705693E0,2.5132673E0,3.0535355E0,3.600156E0,3.3727148E0,3.4478889E0,4.1897445E0,4.148157E0,2.687816E0,2.9288256E0,1.7559068E0,2.1931589E0,2.5756745E0,2.2917356E0,2.8444595E0,2.6540632E0,2.489794E0,2.5938847E0,2.4975429E0,1.8461897E0,2.6609662E0,2.2985964E0,1.6961715E0,1.5762469E0,2.627371E-1,1.1336701E0,3.8915923E0,2.9834907E0,3.0053802E0,2.4124475E0,2.4783332E0,1.3774675E0,2.1272304E0,1.8059713E0,2.2945583E0,2.2030277E0,2.4722333E0,2.7168837E0,2.0019257E0,2.5891132E0,1.9316154E0,9.467606E-1,1.9858649E0,2.701782E-1,1.7075897E0,1.0347114E0,1.6672065E0,2.7091668E0,1.4331384E0,6.238418E-1,2.984798E0,2.9309173E0,2.8492792E0,1.9896733E0,2.5846386E0,2.1933236E0,9.199787E-1,1.2105619E0,2.6906977E0,2.130728E0,1.562573E0,2.0406392E0,3.1468863E0,3.4715548E0,2.1351087E0,1.926912E0,2.9496353E0,2.2892594E0,1.4063404E0,1.1318818E0,1.6369349E0,2.2782092E0,2.8529928E0,3.1422489E0],"categories":[],"categories_nodes":[],"categories_segments":[],"categories_sizes":[],"default_left":[1,1,1,1,1,1,1,1,1,1,1,1,1,1,1,1,0,1,1,1,1,1,1,1,1,1,1,1,1,1,1,1,1,1,1,1,1,1,1,1,1,0,1,1,1,1,1,1,1,1,1,1,1,1,1,1,1,0,1,1,1,1,1,1,1,0,1,1,1,1,1,0,0,1,1,1,0,1,0,0,0,0,1,1,1,1,1,1,1,1,1,1,1,1,1,1,1,1,1,1,1,1,1,0,1,1,1,0,1,1,1,1,1,1,1,1,1,0,0,0,0,0,0,0,0,0,0,0,0,0,0,0,0,0,0,0,0,0,0,0,0,0,0,0,0,0,0,0,0,0,0,0,0,0,0,0,0,0,0,0,0,0,0,0,0,0,0,0,0,0,0,0,0,0,0,0,0,0,0,0,0,0,0,0,0,0,0,0,0,0,0,0,0,0,0,0,0,0,0,0,0,0,0,0,0,0,0,0,0],"id":6,"left_children":[1,3,5,7,9,11,13,15,17,19,21,23,25,27,29,31,-1,33,35,37,39,41,43,45,47,49,51,53,55,57,59,61,63,65,67,69,71,73,75,77,79,-1,81,83,85,87,89,91,93,95,97,99,101,103,105,107,109,-1,111,113,115,117,119,121,123,-1,125,127,129,131,133,-1,-1,135,137,139,-1,141,-1,-1,-1,-1,143,145,147,149,151,153,155,157,159,161,163,165,167,169,171,173,175,177,179,181,183,-1,185,187,189,-1,191,193,195,197,199,201,203,205,207,-1,-1,-1,-1,-1,-1,-1,-1,-1,-1,-1,-1,-1,-1,-1,-1,-1,-1,-1,-1,-1,-1,-1,-1,-1,-1,-1,-1,-1,-1,-1,-1,-1,-1,-1,-1,-1,-1,-1,-1,-1,-1,-1,-1,-1,-1,-1,-1,-1,-1,-1,-1,-1,-1,-1,-1,-1,-1,-1,-1,-1,-1,-1,-1,-1,-1,-1,-1,-1,-1,-1,-1,-1,-1,-1,-1,-1,-1,-1,-1,-1,-1,-1,-1,-1,-1,-1,-1,-1,-1,-1,-1],"loss_changes":[8.900664E2,1.0300293E2,3.2590234E2,1.1168213E2,9.291797E1,2.6614062E2,8.255469E1,8.04776E0,6.923901E1,5.449414E1,1.3618774E1,2.935254E2,6.22583E1,2.7297852E1,1.4564453E1,7.251587E-1,0E0,1.0169373E1,1.1174316E1,3.4384766E1,4.5043945E-2,3.1653137E0,3.4396362E0,1.5294482E2,1.6732812E2,1.7052368E1,3.681836E1,4.7651978E0,8.441315E0,1.3189819E1,2.5026855E1,1.9725037E-1,4.0534973E-2,1.08992E0,3.0890503E0,4.8117676E0,1.2023163E-1,9.995117E0,1.2397461E0,1.4221191E-2,4.522705E-2,0E0,3.4187317E-1,9.0649414E-1,2.9985046E-1,1.8630005E1,4.6181824E1,5.3427734E1,6.8853516E1,1.3388062E0,4.826416E0,2.2517578E1,2.1835205E1,7.972717E-2,2.85083E0,6.406231E-1,4.337158E0,0E0,1.4786255E1,1.9342896E1,2.0489258E1,6.5841675E-3,6.866455E-5,8.68988E-3,6.7710876E-3,0E0,2.3414612E-1,5.623169E-1,5.102844E-1,5.6153564E0,6.121216E0,0E0,0E0,1.1664429E0,4.2941895E0,5.258789E-1,0E0,8.69751E-4,0E0,0E0,0E0,0E0,1.2664032E-1,9.688568E-1,4.414673E-1,1.0334778E-1,3.681183E-2,2.0836548E1,2.9180908E0,8.0548096E-1,2.3744293E1,1.6019043E1,5.8791016E1,4.4784668E1,3.688965E1,4.799652E-2,7.697754E-1,3.7829437E0,3.7740479E0,1.7475098E1,1.4251587E1,1.6875854E1,1.302179E1,0E0,4.837036E-3,3.6256409E0,2.7541504E0,0E0,2.5243664E-1,1.46138E0,2.821762E0,1.5948486E0,1.2831879E-1,2.2404785E0,3.3374786E-1,2.7990417E0,5.2211914E0,0E0,0E0,0E0,0E0,0E0,0E0,0E0,0E0,0E0,0E0,0E0,0E0,0E0,0E0,0E0,0E0,0E0,0E0,0E0,0E0,0E0,0E0,0E0,0E0,0E0,0E0,0E0,0E0,0E0,0E0,0E0,0E0,0E0,0E0,0E0,0E0,0E0,0E0,0E0,0E0,0E0,0E0,0E0,0E0,0E0,0E0,0E0,0E0,0E0,0E0,0E0,0E0,0E0,0E0,0E0,0E0,0E0,0E0,0E0,0E0,0E0,0E0,0E0,0E0,0E0,0E0,0E0,0E0,0E0,0E0,0E0,0E0,0E0,0E0,0E0,0E0,0E0,0E0,0E0,0E0,0E0,0E0,0E0,0E0,0E0,0E0,0E0,0E0,0E0,0E0,0E0,0E0],"parents":[2147483647,0,0,1,1,2,2,3,3,4,4,5,5,6,6,7,7,8,8,9,9,10,10,11,11,12,12,13,13,14,14,15,15,17,17,18,18,19,19,20,20,21,21,22,22,23,23,24,24,25,25,26,26,27,27,28,28,29,29,30,30,31,31,32,32,33,33,34,34,35,35,36,36,37,37,38,38,39,39,40,40,42,42,43,43,44,44,45,45,46,46,47,47,48,48,49,49,50,50,51,51,52,52,53,53,54,54,55,55,56,56,58,58,59,59,60,60,61,61,62,62,63,63,64,64,66,66,67,67,68,68,69,69,70,70,73,73,74,74,75,75,77,77,82,82,83,83,84,84,85,85,86,86,87,87,88,88,89,89,90,90,91,91,92,92,93,93,94,94,95,95,96,96,97,97,98,98,99,99,100,100,101,101,102,102,104,104,105,105,106,106,108,108,109,109,110,110,111,111,112,112,113,113,114,114,115,115,116,116],"right_children":[2,4,6,8,10,12,14,16,18,20,22,24,26,28,30,32,-1,34,36,38,40,42,44,46,48,50,52,54,56,58,60,62,64,66,68,70,72,74,76,78,80,-1,82,84,86,88,90,92,94,96,98,100,102,104,106,108,110,-1,112,114,116,118,120,122,124,-1,126,128,130,132,134,-1,-1,136,138,140,-1,142,-1,-1,-1,-1,144,146,148,150,152,154,156,158,160,162,164,166,168,170,172,174,176,178,180,182,184,-1,186,188,190,-1,192,194,196,198,200,202,204,206,208,-1,-1,-1,-1,-1,-1,-1,-1,-1,-1,-1,-1,-1,-1,-1,-1,-1,-1,-1,-1,-1,-1,-1,-1,-1,-1,-1,-1,-1,-1,-1,-1,-1,-1,-1,-1,-1,-1,-1,-1,-1,-1,-1,-1,-1,-1,-1,-1,-1,-1,-1,-1,-1,-1,-1,-1,-1,-1,-1,-1,-1,-1,-1,-1,-1,-1,-1,-1,-1,-1,-1,-1,-1,-1,-1,-1,-1,-1,-1,-1,-1,-1,-1,-1,-1,-1,-1,-1,-1,-1,-1,-1],"split_conditions":[-1.4182022E-2,-3.1323634E-2,-1.4224944E-1,2.4952404E-1,-6.2544805E-1,2.3011591E-2,-3.1274714E-2,-5.361986E-1,-9.7987935E-2,1.4930007E0,-4.099005E-1,-3.1746425E-2,-2.7740896E-1,-2.4490283E-1,-3.137244E-1,-5.839329E-1,5.6712605E-2,-2.3669723E-1,1.3999109E0,-1.339502E-2,-6.110141E-1,-3.7578776E-1,1.3965874E0,-8.9847036E-2,3.8209017E-3,-1.3389142E0,-3.07264E-1,-1.1538126E-1,5.252435E-1,3.5077214E-1,-4.763484E-2,-8.0712265E-1,2.9473233E-1,-6.2141055E-1,-1.980916E-2,3.124535E0,-1.884343E-1,-8.0712265E-1,5.252435E-1,-6.178896E-2,4.1248134E-1,5.4043126E-1,-5.169739E-1,-1.6080596E-2,5.928684E-1,-3.2251514E-2,-1.1573536E-2,-1.8925631E0,-3.6981173E-2,-2.7242437E-2,-7.882935E-1,1.8938994E0,-2.6916992E-2,-4.8989606E-1,-3.2321304E-2,5.099879E-1,-1.0800709E-1,6.5396565E-1,-2.9963735E-2,-1.14842005E-1,4.4103637E-1,-5.7357395E-1,-7.7419385E-2,8.350733E-2,-6.194099E-2,4.1095653E-1,2.3898702E0,1.7236113E1,-1.06395215E-1,-3.07264E-1,-6.603356E-1,2.0319423E-1,2.3640448E-1,-1.3016497E-1,7.941814E0,2.2120371E-1,5.3701174E-1,-6.4459044E-1,5.843802E-1,5.7016826E-1,5.822518E-1,4.4467708E-1,-5.4612875E-1,-7.3979497E-1,-1.4241749E-2,7.194131E-2,1.3435718E0,-1.10934965E-1,-6.315662E-1,-1.3989403E-2,-4.1786736E-1,-7.573302E-1,-6.0487308E-2,5.252435E-1,1.6107943E-2,-3.6821574E-1,6.692147E-2,-5.169739E-1,1.5075207E0,2.493433E-1,-1.3389142E0,9.411839E-2,1.920807E-1,4.4283387E-1,-4.4342244E-1,-6.0586244E-1,-3.1632774E-2,2.0145977E-1,-8.206377E-2,-6.2544805E-1,-1.3473654E-1,-6.318859E-2,8.4565985E-1,-2.4285305E-1,-2.9501114E-2,2.255866E0,2.950239E0,2.6088396E-1,2.694873E-1,2.3916706E-1,2.362917E-1,2.223636E-1,2.173469E-1,2.1444504E-1,2.0774315E-1,5.0514674E-1,4.6521565E-1,6.17923E-1,6.7425543E-1,5.2089834E-1,5.7007146E-1,4.551922E-1,3.5428312E-1,3.8026226E-1,4.4602272E-1,3.9347854E-1,3.5693628E-1,4.336656E-1,5.112971E-1,4.789957E-1,4.89672E-1,5.9503096E-1,5.891247E-1,3.8172582E-1,4.1595423E-1,2.4937533E-1,3.1147423E-1,3.6579943E-1,3.2547417E-1,4.0397248E-1,3.7693223E-1,3.536026E-1,3.6838564E-1,3.547031E-1,2.6219738E-1,3.779126E-1,3.2644856E-1,2.4089168E-1,2.2385988E-1,3.731414E-2,1.6100475E-1,5.526871E-1,4.237178E-1,4.2682657E-1,3.4261778E-1,3.5197493E-1,1.9562908E-1,3.02111E-1,2.5648552E-1,3.2587504E-1,3.128758E-1,3.511086E-1,3.8585404E-1,2.8431514E-1,3.67708E-1,2.743296E-1,1.3445972E-1,2.8203416E-1,3.837093E-2,2.425133E-1,1.4695056E-1,2.3677804E-1,3.8475809E-1,2.0353548E-1,8.859853E-2,4.2390347E-1,4.1625127E-1,4.0465698E-1,2.8257504E-1,3.670725E-1,3.1149763E-1,1.3065612E-1,1.71925E-1,3.821351E-1,3.0260774E-1,2.219179E-1,2.8981325E-1,4.4692338E-1,4.9303305E-1,3.032299E-1,2.736616E-1,4.189096E-1,3.251225E-1,1.997296E-1,1.6075079E-1,2.3247884E-1,3.2355314E-1,4.051844E-1,4.4626477E-1],"split_indices":[59,24,9,3,0,59,24,28,58,20,60,24,60,60,60,3,0,4,7,58,60,23,21,58,59,27,20,58,35,4,60,21,21,23,59,57,60,21,35,58,37,0,2,59,20,24,59,1,58,24,29,60,24,60,24,11,58,0,24,60,0,60,58,57,58,0,40,50,58,20,60,0,0,23,46,31,0,60,0,0,0,0,60,5,58,60,23,58,60,59,26,20,58,35,58,60,58,2,0,59,27,59,59,0,60,60,24,0,60,0,55,58,21,60,24,11,16,0,0,0,0,0,0,0,0,0,0,0,0,0,0,0,0,0,0,0,0,0,0,0,0,0,0,0,0,0,0,0,0,0,0,0,0,0,0,0,0,0,0,0,0,0,0,0,0,0,0,0,0,0,0,0,0,0,0,0,0,0,0,0,0,0,0,0,0,0,0,0,0,0,0,0,0,0,0,0,0,0,0,0,0,0,0,0,0,0,0,0,0],"split_type":[0,0,0,0,0,0,0,0,0,0,0,0,0,0,0,0,0,0,0,0,0,0,0,0,0,0,0,0,0,0,0,0,0,0,0,0,0,0,0,0,0,0,0,0,0,0,0,0,0,0,0,0,0,0,0,0,0,0,0,0,0,0,0,0,0,0,0,0,0,0,0,0,0,0,0,0,0,0,0,0,0,0,0,0,0,0,0,0,0,0,0,0,0,0,0,0,0,0,0,0,0,0,0,0,0,0,0,0,0,0,0,0,0,0,0,0,0,0,0,0,0,0,0,0,0,0,0,0,0,0,0,0,0,0,0,0,0,0,0,0,0,0,0,0,0,0,0,0,0,0,0,0,0,0,0,0,0,0,0,0,0,0,0,0,0,0,0,0,0,0,0,0,0,0,0,0,0,0,0,0,0,0,0,0,0,0,0,0,0,0,0,0,0,0,0,0,0,0,0,0,0,0,0,0,0,0,0,0,0],"sum_hessian":[1.0722E4,1.524E3,9.198E3,4.62E2,1.062E3,8.205E3,9.93E2,8.1E1,3.81E2,9.03E2,1.59E2,6.102E3,2.103E3,2.43E2,7.5E2,7.5E1,6E0,5.4E1,3.27E2,8.31E2,7.2E1,2.1E1,1.38E2,8.61E2,5.241E3,3.24E2,1.779E3,1.44E2,9.9E1,1.32E2,6.18E2,2.4E1,5.1E1,1.8E1,3.6E1,3.18E2,9E0,4.41E2,3.9E2,3.6E1,3.6E1,6E0,1.5E1,1.11E2,2.7E1,3.54E2,5.07E2,1.767E3,3.474E3,1.31E2,1.93E2,8.21E2,9.58E2,1.5E1,1.29E2,2.1E1,7.8E1,6E0,1.26E2,3.9E1,5.79E2,9E0,1.5E1,3.6E1,1.5E1,6E0,1.2E1,1.5E1,2.1E1,1.65E2,1.53E2,5E0,4E0,7.8E1,3.63E2,3.81E2,9E0,1.2E1,2.4E1,9E0,2.7E1,6E0,9E0,3.9E1,7.2E1,1.2E1,1.5E1,2.58E2,9.6E1,2.31E2,2.76E2,1.26E2,1.641E3,7.44E2,2.73E3,2.4E1,1.07E2,4.4E1,1.49E2,5.73E2,2.48E2,5.63E2,3.95E2,4E0,1.1E1,3.3E1,9.6E1,9E0,1.2E1,2.7E1,5.1E1,1.14E2,1.2E1,2.1E1,1.8E1,3.7E1,5.42E2,5E0,4E0,9E0,6E0,2.4E1,1.2E1,9E0,6E0,6E0,6E0,9E0,6E0,6E0,1.5E1,1.2E1,1.53E2,1.15E2,3.8E1,5.1E1,2.7E1,3.48E2,1.5E1,2.16E2,1.65E2,4E0,8E0,4E0,5E0,6E0,3.3E1,6E0,6.6E1,7E0,5E0,6E0,9E0,6.6E1,1.92E2,6.1E1,3.5E1,9.6E1,1.35E2,3.6E1,2.4E2,2.4E1,1.02E2,1.89E2,1.452E3,7.05E2,3.9E1,2.307E3,4.23E2,1.1E1,1.3E1,9.2E1,1.5E1,2.3E1,2.1E1,1.45E2,4E0,5.67E2,6E0,2.11E2,3.7E1,5.47E2,1.6E1,3.74E2,2.1E1,4E0,7E0,6E0,2.7E1,7.2E1,2.4E1,6E0,6E0,6E0,2.1E1,3E1,2.1E1,9.6E1,1.8E1,6E0,6E0,1.2E1,9E0,8E0,1E1,9E0,2.8E1,4.7E2,7.2E1],"tree_param":{"num_deleted":"0","num_feature":"61","num_nodes":"209","size_leaf_vector":"0"}},{"base_weights":[1.944626E0,2.55193E0,1.844003E0,2.8752663E0,2.3963885E0,1.7878189E0,2.3082414E0,2.674053E0,2.9314177E0,2.495941E0,1.547423E0,1.3722538E0,1.8466154E0,1.8736267E0,2.4490561E0,2.6604676E0,2.6953902E0,2.923969E0,3.2442079E0,2.4235704E0,3.2464445E0,1.3690712E0,2.1716356E0,1.1181134E0,1.6739421E0,1.9703304E0,1.5592055E0,2.1120694E0,1.5267965E0,2.7077804E0,2.3937938E0,2.6549687E0,2.6700718E0,2.6849964E0,2.7031667E0,2.885804E0,2.948254E0,3.3422105E0,2.3604572E0,3.5168986E0,2.604097E0,1.4984348E0,1.3173187E0,2.2997935E0,1.9579895E0,1.3951496E0,9.1874963E-1,1.848353E0,1.1369361E0,2.1587815E0,1.8096048E0,1.5139093E0,2.2561445E0,2.3955944E0,2.017557E0,1.0439134E0,1.656798E0,3.9507537E0,2.6485872E0,1.7284993E0,2.4386055E0,2.665335E0,2.647175E0,2.6956418E0,2.6615229E0,2.919533E0,2.8516066E0,3.6267624E0,2.9301584E0,2.7816706E0,3.6224678E0,2.4485817E0,1.9773821E0,3.477149E0,3.5243416E0,2.8397346E0,2.5255253E0,1.5992072E0,1.4379424E0,1.2462869E0,1.3555555E0,2.3553061E0,2.262735E0,1.9409158E0,1.9715596E0,1.358435E0,1.47151E0,1.3070663E0,7.603554E-1,2.0302997E0,1.6813177E0,1.0953034E0,1.622603E0,2.3418796E0,2.042158E0,1.9914023E0,1.7625095E0,1.9820656E0,1.4596338E0,2.5946014E0,1.1053771E0,2.6552696E0,2.3090189E0,1.661815E0,2.1191924E0,1.2170634E0,9.1401535E-1,1.9349024E0,1.5095576E0,2.7439504E0,1.7426022E0,2.2879243E0,1.0758128E0,1.8208357E0,2.4807773E0,2.6402385E0,2.6721268E0,2.9442809E0,2.8570516E0,2.862447E0,2.8331203E0,2.937369E0,2.7570474E0,2.4826808E0,2.9311273E0,3.428384E0,3.8941524E0,3.4261355E-1,2.4685428E0,1.9287664E0,2.3257697E0,3.4247403E0,3.5189807E0,2.4863353E0,2.5646648E0,1.5701364E0,1.6223766E0,1.1844873E0,1.2926009E0,1.3362936E0,1.4614245E0,1.4457248E0,1.2565911E0,1.4318445E0,1.6797175E0,1.6534497E0,1.0568926E0,3.6327913E-1,9.791497E-1,2.4688137E0,1.957211E0,1.8009901E0,1.0709736E0,1.0750113E0,1.4300525E0,2.58193E0,2.0562716E0,2.5757513E0,1.9993234E0,2.2610414E0,1.8810942E0,1.7915484E0,1.3956606E0,2.072247E0,1.5714912E0,1.4973022E0,1.0244973E0,2.6933334E0,2.2737033E0,5.866105E-1,1.3276856E0,2.3398414E0,2.9075208E0,2.5698807E0,1.982904E0,1.7288822E0,1.5499879E0,2.2141314E0,1.8818262E0,7.8932315E-1,1.0386375E0,2.3085642E0,1.8281206E0,1.3406552E0,1.7508261E0,2.6999633E0,2.9785223E0,1.83188E0,1.6532513E0,2.5307267E0,1.9641378E0,1.2066115E0,9.7113127E-1,1.1375859E0,1.903641E0,2.4478085E0,2.6959844E0],"categories":[],"categories_nodes":[],"categories_segments":[],"categories_sizes":[],"default_left":[1,1,1,1,1,1,1,1,1,1,1,1,1,1,1,1,1,1,0,1,1,1,1,1,1,1,1,1,1,1,1,1,1,0,0,1,1,1,1,1,1,1,1,1,1,1,1,1,1,1,1,1,1,1,1,1,1,0,1,1,1,0,0,0,1,1,1,0,1,1,1,1,1,1,0,0,1,1,0,1,1,0,0,0,0,1,1,1,1,1,1,1,0,1,1,1,1,1,1,1,1,1,1,1,1,0,1,1,1,1,1,1,1,1,1,0,0,0,0,0,0,0,0,0,0,0,0,0,0,0,0,0,0,0,0,0,0,0,0,0,0,0,0,0,0,0,0,0,0,0,0,0,0,0,0,0,0,0,0,0,0,0,0,0,0,0,0,0,0,0,0,0,0,0,0,0,0,0,0,0,0,0,0,0,0,0,0,0,0,0,0,0,0,0,0,0,0],"id":7,"left_children":[1,3,5,7,9,11,13,15,17,19,21,23,25,27,29,31,33,35,-1,37,39,41,43,45,47,49,51,53,55,57,59,61,63,-1,-1,65,67,69,71,73,75,77,79,81,83,85,87,89,91,93,95,97,99,101,103,105,107,-1,109,111,113,-1,-1,-1,115,117,119,-1,121,123,125,127,129,131,-1,-1,133,135,-1,137,139,-1,-1,-1,-1,141,143,145,147,149,151,153,-1,155,157,159,161,163,165,167,169,171,173,175,177,-1,179,181,183,185,187,189,191,193,195,-1,-1,-1,-1,-1,-1,-1,-1,-1,-1,-1,-1,-1,-1,-1,-1,-1,-1,-1,-1,-1,-1,-1,-1,-1,-1,-1,-1,-1,-1,-1,-1,-1,-1,-1,-1,-1,-1,-1,-1,-1,-1,-1,-1,-1,-1,-1,-1,-1,-1,-1,-1,-1,-1,-1,-1,-1,-1,-1,-1,-1,-1,-1,-1,-1,-1,-1,-1,-1,-1,-1,-1,-1,-1,-1,-1,-1,-1,-1,-1,-1,-1],"loss_changes":[6.5520703E2,7.6643555E1,2.399082E2,5.590332E0,8.696582E1,2.0047656E2,6.0770508E1,2.89917E-2,8.9868164E-1,5.0020996E1,1.2022095E1,7.797327E1,2.5558398E2,2.0094421E1,1.0721191E1,1.1901855E-3,1.0681152E-3,3.4814453E-1,0E0,4.869922E1,1.4069092E1,5.61203E-1,6.553116E-1,3.0486572E1,4.355066E1,1.5220117E2,6.828076E1,3.8568115E0,6.2136536E0,9.709045E0,1.8422363E1,1.1291504E-3,2.9296875E-3,0E0,0E0,1.6699219E-1,2.833496E0,8.480347E0,2.6532715E1,1.3793945E-2,4.4204712E-1,1.4503479E-1,1.6188812E-1,2.8892517E-2,4.310608E-4,6.463928E-1,1.974295E1,1.0666016E1,2.303894E0,4.938867E1,2.3217773E1,5.160498E1,5.14104E1,8.072357E-1,3.9032898E0,4.714508E-1,3.1925354E0,0E0,1.0884155E1,1.4238647E1,1.508252E1,0E0,0E0,0E0,1.7700195E-3,1.1199951E-1,1.2207031E-2,0E0,2.7844238E-1,8.0200195E-1,1.8950806E0,2.6860596E1,2.487915E0,1.6685486E-2,0E0,0E0,2.5428772E-2,4.72641E-3,0E0,5.9078217E-2,7.836151E-2,0E0,0E0,0E0,0E0,1.3857117E0,6.1808777E-1,8.057877E0,1.9807648E1,5.3826294E0,1.3365356E1,7.12204E-1,0E0,6.1702637E1,3.2293945E1,1.659497E1,2.2945312E1,7.811035E0,2.9830322E1,3.2295532E0,3.4590073E0,7.1385574E-1,2.2949677E0,1.7861938E-1,1.8912354E0,0E0,1.8572235E-1,1.0755539E0,2.0770035E0,1.1738281E0,9.426117E-2,1.649025E0,2.455616E-1,2.0920715E0,3.8432617E0,0E0,0E0,0E0,0E0,0E0,0E0,0E0,0E0,0E0,0E0,0E0,0E0,0E0,0E0,0E0,0E0,0E0,0E0,0E0,0E0,0E0,0E0,0E0,0E0,0E0,0E0,0E0,0E0,0E0,0E0,0E0,0E0,0E0,0E0,0E0,0E0,0E0,0E0,0E0,0E0,0E0,0E0,0E0,0E0,0E0,0E0,0E0,0E0,0E0,0E0,0E0,0E0,0E0,0E0,0E0,0E0,0E0,0E0,0E0,0E0,0E0,0E0,0E0,0E0,0E0,0E0,0E0,0E0,0E0,0E0,0E0,0E0,0E0,0E0,0E0,0E0,0E0,0E0,0E0,0E0,0E0,0E0],"parents":[2147483647,0,0,1,1,2,2,3,3,4,4,5,5,6,6,7,7,8,8,9,9,10,10,11,11,12,12,13,13,14,14,15,15,16,16,17,17,19,19,20,20,21,21,22,22,23,23,24,24,25,25,26,26,27,27,28,28,29,29,30,30,31,31,32,32,35,35,36,36,37,37,38,38,39,39,40,40,41,41,42,42,43,43,44,44,45,45,46,46,47,47,48,48,49,49,50,50,51,51,52,52,53,53,54,54,55,55,56,56,58,58,59,59,60,60,64,64,65,65,66,66,68,68,69,69,70,70,71,71,72,72,73,73,76,76,77,77,79,79,80,80,85,85,86,86,87,87,88,88,89,89,90,90,91,91,93,93,94,94,95,95,96,96,97,97,98,98,99,99,100,100,101,101,102,102,103,103,104,104,106,106,107,107,108,108,109,109,110,110,111,111,112,112,113,113,114,114],"right_children":[2,4,6,8,10,12,14,16,18,20,22,24,26,28,30,32,34,36,-1,38,40,42,44,46,48,50,52,54,56,58,60,62,64,-1,-1,66,68,70,72,74,76,78,80,82,84,86,88,90,92,94,96,98,100,102,104,106,108,-1,110,112,114,-1,-1,-1,116,118,120,-1,122,124,126,128,130,132,-1,-1,134,136,-1,138,140,-1,-1,-1,-1,142,144,146,148,150,152,154,-1,156,158,160,162,164,166,168,170,172,174,176,178,-1,180,182,184,186,188,190,192,194,196,-1,-1,-1,-1,-1,-1,-1,-1,-1,-1,-1,-1,-1,-1,-1,-1,-1,-1,-1,-1,-1,-1,-1,-1,-1,-1,-1,-1,-1,-1,-1,-1,-1,-1,-1,-1,-1,-1,-1,-1,-1,-1,-1,-1,-1,-1,-1,-1,-1,-1,-1,-1,-1,-1,-1,-1,-1,-1,-1,-1,-1,-1,-1,-1,-1,-1,-1,-1,-1,-1,-1,-1,-1,-1,-1,-1,-1,-1,-1,-1,-1,-1],"split_conditions":[-1.4182022E-2,-1.8925631E0,-1.4224944E-1,-1.339502E-2,-1.5025293E-2,-3.1763677E-2,-3.1274714E-2,3.1390524E-1,5.252435E-1,4.1248134E-1,-3.147518E-2,-8.241666E-1,1.3610611E-2,-2.4490283E-1,-3.137244E-1,1.8816164E-1,4.9395877E-1,-1.2105725E-2,4.6074507E-1,-8.395184E-1,8.1048E-1,-5.839329E-1,-6.2544805E-1,-1.1573536E-2,2.9313762E-2,9.429298E-3,2.4812734E-1,-8.0712265E-1,5.252435E-1,3.5077214E-1,-4.763484E-2,-1.0479267E-1,2.1840033E-1,3.813254E-1,3.8390595E-1,3.0653023E-3,-7.573302E-1,-2.3669723E-1,-4.099005E-1,-6.178896E-2,3.2520473E-2,-8.0712265E-1,-3.1956732E-2,1.4280218E-1,2.4052802E-2,2.2120371E-1,-8.717933E-2,-6.789012E-3,4.4103637E-1,-7.882935E-1,-8.6703336E-1,-2.7662897E-1,4.4103637E-1,-5.9289265E-1,-3.2321304E-2,5.099879E-1,-1.0800709E-1,5.610893E-1,-2.9963735E-2,-1.14842005E-1,4.4103637E-1,3.7853307E-1,3.7595397E-1,3.8283727E-1,2.495097E-1,-1.3332017E-2,-1.3332017E-2,5.150758E-1,1.9043319E-1,-6.2141055E-1,-8.6703336E-1,-3.1746425E-2,6.1056167E-2,-6.4459044E-1,5.005299E-1,4.0330145E-1,-3.509252E-1,-5.888113E-1,2.0421776E-1,-1.3370895E-1,-4.8060858E-1,3.3450252E-1,3.2135546E-1,2.7565047E-1,2.8000253E-1,-1.3989403E-2,-5.411948E-1,-3.7380771E-3,-3.2412477E-2,-1.15979254E-1,2.009427E0,1.3965874E0,2.3044342E-1,-7.3979497E-1,-3.0583043E-2,-8.0712265E-1,6.0792977E-1,-5.839329E-1,-2.6156676E-1,1.814852E0,2.0738258E0,-6.462593E-1,-1.1538126E-1,-1.0292595E-1,-3.1632774E-2,1.7284834E-1,-8.206377E-2,-6.2544805E-1,-1.3473654E-1,-6.318859E-2,8.4565985E-1,-2.4285305E-1,-2.9501114E-2,-4.2839004E-3,2.950239E0,3.7496886E-1,3.7949765E-1,4.1814917E-1,4.0576082E-1,4.0652707E-1,4.0236208E-1,4.1716757E-1,3.9155814E-1,3.5259238E-1,4.162811E-1,4.869019E-1,5.530507E-1,4.865826E-2,3.5058448E-1,2.7392498E-1,3.3030772E-1,4.8638442E-1,4.9976853E-1,3.531114E-1,3.6423582E-1,2.2299206E-1,2.3041125E-1,1.6822186E-1,1.8357624E-1,1.8978152E-1,2.075527E-1,2.0532303E-1,1.784621E-1,2.0335172E-1,2.3855487E-1,2.3482428E-1,1.5010075E-1,5.15932E-2,1.3905965E-1,3.5062295E-1,2.779647E-1,2.557781E-1,1.5210055E-1,1.5267397E-1,2.0309724E-1,3.666878E-1,2.9203337E-1,3.658103E-1,2.8394556E-1,3.2111496E-1,2.6715454E-1,2.5443718E-1,1.9821288E-1,2.9430223E-1,2.2318448E-1,2.1264808E-1,1.4549994E-1,3.825094E-1,3.2291323E-1,8.33109E-2,1.88559E-1,3.323062E-1,4.129285E-1,3.6497658E-1,2.8161365E-1,2.4553727E-1,2.2013056E-1,3.1445277E-1,2.672585E-1,1.12100326E-1,1.4750816E-1,3.2786417E-1,2.596312E-1,1.9040096E-1,2.4865377E-1,3.83451E-1,4.230122E-1,2.601651E-1,2.347961E-1,3.594159E-1,2.7894846E-1,1.7136396E-1,1.3792086E-1,1.6156088E-1,2.7035666E-1,3.4763977E-1,3.828859E-1],"split_indices":[59,1,9,58,59,24,24,60,35,37,24,4,58,60,60,60,60,58,0,60,6,3,0,59,59,59,34,21,35,4,60,60,60,0,0,60,20,4,60,58,7,21,24,20,60,31,58,59,0,29,23,60,0,60,24,11,58,0,24,60,0,0,0,0,60,58,58,0,36,23,23,24,58,60,0,0,57,60,0,57,60,0,0,0,0,59,60,59,24,58,6,21,0,5,24,21,60,3,32,55,60,60,58,58,24,0,60,0,55,58,21,60,24,59,16,0,0,0,0,0,0,0,0,0,0,0,0,0,0,0,0,0,0,0,0,0,0,0,0,0,0,0,0,0,0,0,0,0,0,0,0,0,0,0,0,0,0,0,0,0,0,0,0,0,0,0,0,0,0,0,0,0,0,0,0,0,0,0,0,0,0,0,0,0,0,0,0,0,0,0,0,0,0,0,0,0,0],"split_type":[0,0,0,0,0,0,0,0,0,0,0,0,0,0,0,0,0,0,0,0,0,0,0,0,0,0,0,0,0,0,0,0,0,0,0,0,0,0,0,0,0,0,0,0,0,0,0,0,0,0,0,0,0,0,0,0,0,0,0,0,0,0,0,0,0,0,0,0,0,0,0,0,0,0,0,0,0,0,0,0,0,0,0,0,0,0,0,0,0,0,0,0,0,0,0,0,0,0,0,0,0,0,0,0,0,0,0,0,0,0,0,0,0,0,0,0,0,0,0,0,0,0,0,0,0,0,0,0,0,0,0,0,0,0,0,0,0,0,0,0,0,0,0,0,0,0,0,0,0,0,0,0,0,0,0,0,0,0,0,0,0,0,0,0,0,0,0,0,0,0,0,0,0,0,0,0,0,0,0,0,0,0,0,0,0,0,0,0,0,0,0,0,0,0,0,0,0],"sum_hessian":[1.0722E4,1.524E3,9.198E3,4.95E2,1.029E3,8.205E3,9.93E2,1.08E2,3.87E2,9.21E2,1.08E2,1.017E3,7.188E3,2.43E2,7.5E2,6.6E1,4.2E1,3.78E2,9E0,8.4E2,8.1E1,8.4E1,2.4E1,5.52E2,4.65E2,5.025E3,2.163E3,1.44E2,9.9E1,1.32E2,6.18E2,4.2E1,2.4E1,1.8E1,2.4E1,1.47E2,2.31E2,5.4E1,7.86E2,5.7E1,2.4E1,2.4E1,6E1,1.5E1,9E0,2.31E2,3.21E2,3.51E2,1.14E2,2.313E3,2.712E3,2.031E3,1.32E2,3.6E1,1.08E2,2.1E1,7.8E1,6E0,1.26E2,3.9E1,5.79E2,1.8E1,2.4E1,6E0,1.8E1,7.4E1,7.3E1,6E0,2.25E2,1.8E1,3.6E1,6.39E2,1.47E2,9E0,4.8E1,6E0,1.8E1,9E0,1.5E1,2.1E1,3.9E1,6E0,9E0,4E0,5E0,1.56E2,7.5E1,9.3E1,2.28E2,1.68E2,1.83E2,1.05E2,9E0,9E2,1.413E3,5.58E2,2.154E3,2.11E2,1.82E3,1.02E2,3E1,9E0,2.7E1,2.4E1,8.4E1,9E0,1.2E1,2.7E1,5.1E1,1.14E2,1.2E1,2.1E1,1.8E1,3.7E1,5.42E2,6E0,1.2E1,5.3E1,2.1E1,4.6E1,2.7E1,2.16E2,9E0,6E0,1.2E1,2.1E1,1.5E1,6E0,6.33E2,1.29E2,1.8E1,4E0,5E0,9E0,9E0,4E0,5E0,9E0,1.2E1,3.3E1,6E0,8.4E1,7.2E1,6.3E1,1.2E1,3.9E1,5.4E1,8.1E1,1.47E2,2.4E1,1.44E2,1.53E2,3E1,9.9E1,6E0,4.89E2,4.11E2,1.05E2,1.308E3,1.62E2,3.96E2,1.996E3,1.58E2,1.73E2,3.8E1,1.675E3,1.45E2,7.8E1,2.4E1,9E0,2.1E1,4E0,5E0,1.5E1,1.2E1,1.5E1,9E0,6E1,2.4E1,6E0,6E0,6E0,2.1E1,3E1,2.1E1,9.6E1,1.8E1,6E0,6E0,1.2E1,9E0,8E0,1E1,4E0,3.3E1,4.7E2,7.2E1],"tree_param":{"num_deleted":"0","num_feature":"61","num_nodes":"197","size_leaf_vector":"0"}},{"base_weights":[1.6684493E0,2.1895044E0,1.5821165E0,1.8833904E0,2.3226721E0,1.5205653E0,1.9002755E0,2.7867136E0,1.7433742E0,2.414747E0,1.7997537E0,1.1720042E0,1.5726545E0,1.6332496E0,1.9633782E0,3.240815E0,2.5541139E0,1.1159314E0,1.9255337E0,2.3589432E0,3.0588088E0,2.4110556E0,1.7217119E0,1.5838095E0,1.0314275E0,1.6755735E0,1.3368044E0,1.8089687E0,1.3320128E0,1.7859893E0,2.105766E0,3.063956E0,3.4765744E0,2.4524891E0,2.9153943E0,2.9395536E-1,1.1746391E0,1.6010821E0,1.9641851E0,2.2224524E0,2.5132816E0,3.153805E0,3.0271347E0,2.18184E0,2.86941E0,1.6646844E0,1.962478E0,1.7453959E0,1.3023317E0,8.5778177E-1,1.3277562E0,1.8543601E0,1.5469655E0,1.2953041E0,1.9357265E0,1.3630158E0,1.8678654E0,1.4573684E0,9.6985894E-1,2.159969E0,1.7308502E0,2.1302807E0,1.6332844E0,2.9863248E0,3.141509E0,2.526872E0,2.1300895E0,1.2856313E0,1.1302351E0,2.2213588E0,1.4903023E0,2.0272238E0,1.72087E0,1.9500955E0,2.2809741E0,2.5068982E0,2.7834642E0,3.2136276E0,3.0939302E0,3.0515745E0,3.0222363E0,2.027794E0,2.3358111E0,1.6924758E0,1.340405E0,2.062265E0,1.762855E0,2.118191E0,1.6805587E0,1.0709752E0,1.4180031E0,3.7626314E-1,9.321329E-1,1.204645E0,2.013651E0,2.246348E0,1.8017762E0,1.9320549E0,1.528224E0,1.4794238E0,1.1564509E0,2.2261147E0,9.4839257E-1,6.8697506E-1,1.6334039E0,2.1382475E0,1.8125566E0,1.9807011E0,1.4137511E0,7.4281245E-1,1.2536318E0,2.3702774E0,2.1399326E0,1.7661728E0,1.3725685E0,2.230589E0,2.0113573E0,1.3659706E0,1.8560219E0,2.647862E0,2.4231334E0,1.3720939E0,1.2337251E0,9.8767453E-1,1.1460674E0,1.9062237E0,1.351641E0,1.9518378E0,2.346707E0,1.5150206E0,2.1668522E0,2.026507E0,1.8057468E0,2.2937298E0,1.521952E0,2.5121975E0,2.3439052E0,1.6741879E0,1.8874966E0,1.2325729E0,1.4265848E0,1.9767085E0,2.1477718E0,1.6003996E0,1.8927317E0,1.9461743E0,2.2901702E0,1.7217206E0,1.0905248E0,9.7039294E-1,1.1262742E0,2.0991778E0,1.2545123E0,9.909495E-1,1.8416494E-1,1.0884514E0,7.6633835E-1,1.8698896E0,1.1780332E0,1.8879308E0,2.3279135E0,2.169452E0,2.827323E0,2.0641377E0,1.7360425E0,9.381764E-1,2.066359E0,7.679219E-1,1.5407612E0,1.7210051E0,1.2097504E0,1.2819626E0,9.0438324E-1,2.3108242E0,1.9507903E0,5.032999E-1,1.1391268E0,1.9354236E0,1.180302E0,2.4089289E0,2.0911527E0,1.4685625E0,1.8776327E0,1.4665352E0,1.0442157E0,6.604949E-1,8.6621916E-1,1.4561394E0,1.1523241E0,2.188207E0,2.0755503E0,1.63443E0,1.8979136E0,1.1453879E0,1.4345139E0,2.2561965E0,1.6671937E0,8.810951E-1,2.0771165E0,1.8035238E0,1.0742204E0,1.7485496E0,1.963445E0],"categories":[],"categories_nodes":[],"categories_segments":[],"categories_sizes":[],"default_left":[1,1,1,1,1,1,1,1,1,1,1,1,1,1,1,1,1,1,1,1,1,1,1,1,1,1,1,1,1,1,1,1,0,1,0,0,1,1,1,1,1,1,1,1,0,1,1,1,1,1,1,1,1,1,1,1,1,1,1,1,1,1,1,0,0,1,0,1,1,0,1,1,1,1,1,1,0,0,0,0,0,0,0,1,1,1,1,1,1,1,1,1,1,1,1,1,1,1,1,1,1,1,1,0,1,1,1,0,1,1,1,0,1,1,1,1,1,1,1,0,0,0,0,0,0,0,0,0,0,0,0,0,0,0,0,0,0,0,0,0,0,0,0,0,0,0,0,0,0,0,0,0,0,0,0,0,0,0,0,0,0,0,0,0,0,0,0,0,0,0,0,0,0,0,0,0,0,0,0,0,0,0,0,0,0,0,0,0,0,0,0,0,0,0,0,0,0,0,0,0,0,0,0],"id":8,"left_children":[1,3,5,7,9,11,13,15,17,19,21,23,25,27,29,31,33,35,37,39,41,43,45,47,49,51,53,55,57,59,61,63,-1,65,-1,-1,67,69,71,73,75,77,79,81,-1,83,85,87,89,91,93,95,97,99,101,103,105,107,109,111,113,115,117,-1,-1,119,-1,121,123,-1,125,127,129,131,133,135,-1,-1,-1,-1,-1,-1,-1,137,139,141,143,145,147,149,151,153,155,157,159,161,163,165,167,169,171,173,175,-1,177,179,181,-1,183,185,187,-1,189,191,193,195,197,199,201,-1,-1,-1,-1,-1,-1,-1,-1,-1,-1,-1,-1,-1,-1,-1,-1,-1,-1,-1,-1,-1,-1,-1,-1,-1,-1,-1,-1,-1,-1,-1,-1,-1,-1,-1,-1,-1,-1,-1,-1,-1,-1,-1,-1,-1,-1,-1,-1,-1,-1,-1,-1,-1,-1,-1,-1,-1,-1,-1,-1,-1,-1,-1,-1,-1,-1,-1,-1,-1,-1,-1,-1,-1,-1,-1,-1,-1,-1,-1,-1,-1,-1,-1,-1],"loss_changes":[4.823203E2,6.212256E1,1.8012305E2,5.8432007E1,5.1131348E1,1.3992969E2,2.512207E1,6.5462036E0,4.5716553E1,3.2452637E1,7.58374E0,5.8004883E1,1.6275195E2,1.5084717E1,3.0459473E1,8.7275696E-1,1.5029907E0,4.342476E0,3.8859863E0,1.7503418E1,2.1398926E-1,1.8889465E0,1.9344177E0,1.1596924E1,3.843695E1,1.07331055E2,5.062915E1,4.7263794E0,4.7657776E0,1.1071655E1,7.7470703E0,6.958008E-2,0E0,7.6542664E-1,0E0,0E0,4.13002E-1,2.2659988E0,4.2471924E0,7.0270996E0,6.7041016E-1,6.17218E-2,3.8146973E-3,2.8277206E-1,0E0,1.0260925E0,5.3621674E-1,3.914093E0,2.4877777E0,1.6861938E1,2.3304413E1,4.0254395E1,1.9593262E1,4.8701416E1,3.784442E1,3.8377113E0,2.3760986E0,1.7790375E0,1.7387791E0,2.8884888E-1,5.9213867E0,7.585205E0,1.963501E0,0E0,0E0,3.241577E-1,0E0,1.0662842E-1,1.3454437E-1,0E0,1.6134605E0,5.296753E0,5.2313538E0,8.587036E-1,3.5129395E0,3.269043E-1,0E0,0E0,0E0,0E0,0E0,0E0,0E0,3.7298584E-1,8.2530975E-2,1.2993622E-1,1.8842697E-1,7.081909E-1,3.3504333E0,1.715622E-1,6.903282E0,7.4385767E0,1.0573303E1,4.1412964E0,1.6576233E0,1.0317627E1,2.96958E1,1.6817474E1,2.4677246E1,5.335498E1,3.43573E1,2.3771057E0,2.5461636E0,0E0,2.0513878E0,3.4227753E-1,2.9535217E0,0E0,1.4033508E0,1.5175343E-1,2.4510384E-1,0E0,1.9400024E-1,7.392212E0,5.8999634E-1,4.975708E0,2.1627441E1,1.9136524E0,2.0624542E-1,0E0,0E0,0E0,0E0,0E0,0E0,0E0,0E0,0E0,0E0,0E0,0E0,0E0,0E0,0E0,0E0,0E0,0E0,0E0,0E0,0E0,0E0,0E0,0E0,0E0,0E0,0E0,0E0,0E0,0E0,0E0,0E0,0E0,0E0,0E0,0E0,0E0,0E0,0E0,0E0,0E0,0E0,0E0,0E0,0E0,0E0,0E0,0E0,0E0,0E0,0E0,0E0,0E0,0E0,0E0,0E0,0E0,0E0,0E0,0E0,0E0,0E0,0E0,0E0,0E0,0E0,0E0,0E0,0E0,0E0,0E0,0E0,0E0,0E0,0E0,0E0,0E0,0E0,0E0,0E0,0E0,0E0,0E0,0E0],"parents":[2147483647,0,0,1,1,2,2,3,3,4,4,5,5,6,6,7,7,8,8,9,9,10,10,11,11,12,12,13,13,14,14,15,15,16,16,17,17,18,18,19,19,20,20,21,21,22,22,23,23,24,24,25,25,26,26,27,27,28,28,29,29,30,30,31,31,33,33,36,36,37,37,38,38,39,39,40,40,41,41,42,42,43,43,45,45,46,46,47,47,48,48,49,49,50,50,51,51,52,52,53,53,54,54,55,55,56,56,57,57,58,58,59,59,60,60,61,61,62,62,65,65,67,67,68,68,70,70,71,71,72,72,73,73,74,74,75,75,83,83,84,84,85,85,86,86,87,87,88,88,89,89,90,90,91,91,92,92,93,93,94,94,95,95,96,96,97,97,98,98,99,99,100,100,101,101,102,102,104,104,105,105,106,106,108,108,109,109,110,110,112,112,113,113,114,114,115,115,116,116,117,117,118,118],"right_children":[2,4,6,8,10,12,14,16,18,20,22,24,26,28,30,32,34,36,38,40,42,44,46,48,50,52,54,56,58,60,62,64,-1,66,-1,-1,68,70,72,74,76,78,80,82,-1,84,86,88,90,92,94,96,98,100,102,104,106,108,110,112,114,116,118,-1,-1,120,-1,122,124,-1,126,128,130,132,134,136,-1,-1,-1,-1,-1,-1,-1,138,140,142,144,146,148,150,152,154,156,158,160,162,164,166,168,170,172,174,176,-1,178,180,182,-1,184,186,188,-1,190,192,194,196,198,200,202,-1,-1,-1,-1,-1,-1,-1,-1,-1,-1,-1,-1,-1,-1,-1,-1,-1,-1,-1,-1,-1,-1,-1,-1,-1,-1,-1,-1,-1,-1,-1,-1,-1,-1,-1,-1,-1,-1,-1,-1,-1,-1,-1,-1,-1,-1,-1,-1,-1,-1,-1,-1,-1,-1,-1,-1,-1,-1,-1,-1,-1,-1,-1,-1,-1,-1,-1,-1,-1,-1,-1,-1,-1,-1,-1,-1,-1,-1,-1,-1,-1,-1,-1,-1],"split_conditions":[-1.4182022E-2,-3.1323634E-2,-1.6705552E-1,-8.1555605E-1,-6.2544805E-1,-3.1763677E-2,-3.1274714E-2,-1.9480977E-2,-3.1746425E-2,1.4930007E0,-4.903314E-1,-1.0402152E-1,1.6107943E-2,-2.4490283E-1,1.1137838E0,-1.052392E-1,1.7429943E0,-4.0597236E-1,-7.5580424E-1,-1.339502E-2,4.1248134E-1,3.5077214E-1,8.4005773E-1,-6.2544805E-1,-3.1980447E-2,9.429298E-3,2.4812734E-1,-1.2131461E0,1.51351625E-2,-2.2840064E-2,8.404042E-2,-1.056777E-1,4.9374595E-1,5.252435E-1,4.140467E-1,4.1747782E-2,-5.839329E-1,-8.0839086E-1,3.2520473E-2,-8.0712265E-1,5.252435E-1,-6.110141E-1,-6.4459044E-1,-2.798967E-2,4.0751597E-1,-3.9762765E-2,5.928684E-1,-1.1659454E-1,-4.4585317E-1,-4.1786736E-1,-1.860831E-1,-1.3389142E0,-6.0816094E-2,-1.3389142E0,4.4103637E-1,-3.2237597E-2,-8.0712265E-1,-1.1538126E-1,-3.18565E-2,-6.380239E-1,-2.7971389E-2,2.1908466E-2,-3.092879E-2,4.241203E-1,4.461597E-1,-1.8536631E-2,3.0251706E-1,-8.0712265E-1,-3.2014124E-2,3.154792E-1,1.0429345E0,-6.603356E-1,4.1248134E-1,-1.3016497E-1,8.4005773E-1,-9.471945E-3,3.9530987E-1,4.5640203E-1,4.3940252E-1,4.333871E-1,4.292205E-1,2.8798896E-1,3.3173382E-1,1.3965874E0,2.811348E-3,-1.6720444E-1,3.9090518E-2,8.1048E-1,2.009427E0,-7.853577E-1,-3.6678272E-1,-7.774625E-3,3.471595E-2,-8.0712265E-1,-6.2544805E-1,5.482918E0,-5.9618004E-2,-1.2073964E0,-3.0395666E-2,9.989505E-2,5.099398E-1,1.814852E0,2.0738258E0,9.7564764E-2,-5.9289265E-1,-5.8580005E-1,-3.2321304E-2,2.8130078E-1,-3.1634398E-2,-7.853577E-1,2.4052802E-2,